
\data\
ngram 1=2643
ngram 2=4848
ngram 3=248

\1-grams:
-0.7635846	</s>
-99	<s>	-0.2948269
-3.647694	آثِمًا	-0.04420055
-3.647694	آذَانِهِمْ	-0.04420055
-3.647694	آلِهَتَكُمْ	-0.04420055
-3.647694	آمَنُوا	-0.04420055
-3.495546	آمَنَّا	-0.1365851
-3.647694	آنِيَةٍ	-0.04420055
-3.647694	آيَاتُنَا	-0.04420055
-3.647694	أَأَمِنْتُمْ	-0.04420055
-3.647694	أَأَنْتُمْ	-0.04420055
-3.647694	أَإِذَا	-0.04420054
-3.647694	أَإِنَّا	-0.04420055
-3.647694	أَبَابِيلَ	-0.04420055
-3.647694	أَبَدًا	-0.04420054
-3.647694	أَبِي	-0.04420055
-3.647694	أَبْصَارُهَا	-0.04420055
-3.647694	أَبْصَارُهُمْ	-0.04420055
-3.647694	أَبْلَغُوا	-0.04420055
-3.647694	أَبْوَابًا	-0.04420055
-3.647694	أَتَاكَ	-0.04420055
-3.647694	أَتَانَا	-0.04420055
-3.647694	أَتَى	-0.04420054
-3.647694	أَتْرَابًا	-0.04420055
-3.647694	أَثِيمٍ	-0.04420055
-3.647694	أَثْقَالَهَا	-0.04420055
-3.647694	أَجَلٍ	-0.04420055
-3.647694	أَجَلَ	-0.04420055
-3.647694	أَجِدَ	-0.04420055
-3.495546	أَجْرًا	-0.04420055
-3.495546	أَجْرٌ	-0.1365851
-3.647694	أَجْرَمُوا	-0.04420055
-3.026532	أَحَدًا	-0.4827641
-2.868613	أَحَدٌ	-0.4388332
-3.647694	أَحَدٍ	-0.04420055
-3.647694	أَحْسَنُ	-0.04420055
-3.647694	أَحْسَنِ	-0.04420055
-3.647694	أَحْصَيْنَاهُ	-0.04420055
-3.647694	أَحْضَرَتْ	-0.04420055
-3.647694	أَحْقَابًا	-0.04420055
-3.647694	أَحْوَى	-0.04420055
-3.647694	أَحْيَاءً	-0.04420055
-3.647694	أَخِيهِ	-0.04420055
-3.647694	أَخْبَارَهَا	-0.04420055
-3.647694	أَخْذًا	-0.04420055
-3.647694	أَخْذَةً	-0.04420055
-3.495546	أَخْرَجَ	-0.04420055
-3.647694	أَخْلَدَهُ	-0.04420055
-3.277206	أَدْبَرَ	-0.04420055
-3.495546	أَدْرَاكَ	-0.1365851
-3.647694	أَدْرِ	-0.04420054
-3.647694	أَدْرِي	-0.04420055
-3.647694	أَدْعُو	-0.04420055
-3.647694	أَدْنَى	-0.04420055
-3.647694	أَذِنَ	-0.04420055
-3.647694	أَرَأَيْتَ	-0.04420055
-3.647694	أَرَأَيْتُمْ	-0.04420055
-3.495546	أَرَادَ	-0.04420055
-3.647694	أَرْجَائِهَا	-0.04420055
-3.647694	أَرْسَاهَا	-0.04420055
-3.495546	أَرْسَلْنَا	-0.04420054
-3.647694	أَزِيدَ	-0.04420055
-3.647694	أَزْوَاجًا	-0.04420055
-3.647694	أَزْوَاجِهِمْ	-0.04420055
-3.647694	أَسَاطِيرُ	-0.04420055
-3.647694	أَسَاوِرَ	-0.04420055
-3.647694	أَسْرَهُمْ	-0.04420055
-3.647694	أَسْفَرَ	-0.04420055
-3.647694	أَسْفَلَ	-0.04420055
-3.647694	أَسْلَفْتُمْ	-0.04420055
-3.647694	أَسْلَمَ	-0.04420055
-3.495546	أَشَدُّ	-0.04420055
-3.647694	أَشَرٌّ	-0.04420055
-3.647694	أَشْتَاتًا	-0.04420055
-3.647694	أَشْقَاهَا	-0.04420055
-3.647694	أَصَابِعَهُمْ	-0.04420055
-3.647694	أَصْبَحَ	-0.04420055
-3.277206	أَصْحَابَ	-0.04420055
-3.277206	أَصْحَابُ	-0.04420054
-3.647694	أَصْحَابِ	-0.04420055
-3.647694	أَضَلُّوا	-0.04420055
-3.647694	أَضْعَفُ	-0.04420055
-3.647694	أَطْعَمَهُمْ	-0.04420055
-3.647694	أَطْوَارًا	-0.04420055
-3.647694	أَعَدَّ	-0.04420054
-3.495546	أَعُوذُ	-0.04420055
-3.495546	أَعْبُدُ	-0.04420055
-3.647694	أَعْتَدْنَا	-0.04420055
-3.647694	أَعْجَازُ	-0.04420055
-3.647694	أَعْطَى	-0.04420055
-3.647694	أَعْطَيْنَاكَ	-0.04420055
-3.277206	أَعْلَمُ	-0.04420055
-3.647694	أَعْلَنْتُ	-0.04420054
-3.647694	أَعْمَالَهُمْ	-0.04420055
-3.647694	أَغْنَى	-0.04420055
-3.647694	أَفَلَا	-0.04420055
-3.647694	أَفَمَنْ	-0.04420055
-3.647694	أَفَنَجْعَلُ	-0.04420055
-3.647694	أَفْلَحَ	-0.04420055
-3.495546	أَفْوَاجًا	-0.1365851
-3.647694	أَقَرِيبٌ	-0.04420054
-3.647694	أَقُلْ	-0.04420055
-3.647694	أَقْسَمُوا	-0.04420055
-3.647694	أَكْبَرُ	-0.04420054
-3.647694	أَكْرَمَنِ	-0.04420055
-3.647694	أَكْفَرَهُ	-0.04420055
-3.647694	أَكْلًا	-0.04420055
-3.647694	أَلَا	-0.04420055
-3.277206	أَلَمْ	-0.04420056
-3.647694	أَلَيْسَ	-0.04420055
-3.495546	أَلِيمًا	-0.1365851
-3.647694	أَلِيمٌ	-0.04420055
-3.495546	أَلِيمٍ	-0.1365851
-3.647694	أَلَّا	-0.04420055
-3.647694	أَلَّنْ	-0.04420055
-3.647694	أَلْفَ	-0.04420055
-3.647694	أَلْفَافًا	-0.04420055
-3.647694	أَلْفِ	-0.04420055
-3.647694	أَلْقَى	-0.04420055
-3.647694	أَلْهَاكُمُ	-0.04420055
-3.647694	أَمَاتَهُ	-0.04420055
-3.647694	أَمَامَهُ	-0.04420055
-3.647694	أَمَدًا	-0.04420055
-3.647694	أَمَرَ	-0.04420055
-3.647694	أَمَرَهُ	-0.04420055
-3.647694	أَمِ	-0.04420055
-3.647694	أَمِنْتُمْ	-0.04420055
-3.647694	أَمِينٍ	-0.04420055
-3.647694	أَمَّا	-0.04420055
-3.495546	أَمَّنْ	-0.04420055
-3.277206	أَمْ	-0.04420055
-3.647694	أَمْثَالَهُمْ	-0.04420055
-3.647694	أَمْرًا	-0.04420055
-3.647694	أَمْرٍ	-0.04420055
-3.647694	أَمْسَكَ	-0.04420055
-3.647694	أَمْشَاجٍ	-0.04420055
-3.647694	أَمْلِكُ	-0.04420055
-3.647694	أَمْهِلْهُمْ	-0.04420055
-3.647694	أَمْوَالِهِمْ	-0.04420055
-3.277206	أَنَا	-0.04420054
-3.647694	أَنِ	-0.04420055
-3.495546	أَنَّ	-0.04420055
-3.647694	أَنَّا	-0.04420055
-3.647694	أَنَّكَ	-0.04420055
-3.495546	أَنَّهُ	-0.04420055
-3.647694	أَنَّهُمْ	-0.04420055
-3.647694	أَنِّي	-0.04420055
-2.394178	أَنْ	-0.09118319
-3.647694	أَنْبَتَكُمْ	-0.04420055
-3.277206	أَنْتَ	-0.04420055
-3.495546	أَنْتُمْ	-0.04420055
-3.647694	أَنْذَرْنَاكُمْ	-0.04420055
-3.647694	أَنْذِرْ	-0.04420055
-3.647694	أَنْزَلْنَاهُ	-0.04420055
-3.647694	أَنْشَأَكُمْ	-0.04420055
-3.647694	أَنْشَرَهُ	-0.04420055
-3.647694	أَنْصَارًا	-0.04420055
-3.647694	أَنْعَمْتَ	-0.04420055
-3.647694	أَنْقَضَ	-0.04420055
-3.647694	أَنْكَالًا	-0.04420055
-3.647694	أَنْهَارًا	-0.04420055
-3.647694	أَهَانَنِ	-0.04420055
-3.647694	أَهْدَى	-0.04420055
-3.647694	أَهْلَكَنِيَ	-0.04420054
-3.647694	أَهْلَكْتُ	-0.04420055
-3.647694	أَهْلُ	-0.04420055
-3.647694	أَهْلِ	-0.04420055
-3.495546	أَهْلِهِ	-0.103558
-3.647694	أَهْلِهِمُ	-0.04420055
-3.647694	أَوَلَمْ	-0.04420055
-3.495546	أَوِ	-0.04420055
-2.753054	أَوْ	-0.04420055
-3.647694	أَوْتَادًا	-0.04420055
-3.647694	أَوْحَى	-0.04420055
-3.647694	أَوْسَطُهُمْ	-0.04420055
-3.495546	أَوْلَى	-0.1365851
-3.647694	أَيَحْسَبُ	-0.04420055
-3.647694	أَيَطْمَعُ	-0.04420055
-3.647694	أَيَّامٍ	-0.04420055
-3.495546	أَيَّانَ	-0.04420055
-3.647694	أَيَّتُهَا	-0.04420055
-3.647694	أَيُّكُمْ	-0.04420055
-3.647694	أَيُّهَا	-0.04420055
-3.647694	أَيُّهُمْ	-0.04420055
-3.495546	أَيِّ	-0.04420055
-3.647694	أَيْمَانٌ	-0.04420055
-3.647694	أَيْمَانُهُمْ	-0.04420055
-3.647694	أَيْنَ	-0.04420055
-3.647694	أُجِّلَتْ	-0.04420055
-3.647694	أُذُنٌ	-0.04420055
-3.647694	أُرِيدَ	-0.04420055
-3.647694	أُرْسِلُوا	-0.04420055
-3.647694	أُزْلِفَتْ	-0.04420055
-3.647694	أُشْرِكُ	-0.04420055
-3.647694	أُغْرِقُوا	-0.04420055
-3.647694	أُقِّتَتْ	-0.04420055
-3.277206	أُقْسِمُ	-0.04420055
-3.647694	أُلْقُوا	-0.04420055
-3.647694	أُلْقِيَ	-0.04420055
-3.647694	أُمِرُوا	-0.04420055
-3.647694	أُوتَ	-0.04420055
-3.647694	أُوتُوا	-0.04420055
-3.647694	أُوتِيَ	-0.04420055
-3.647694	أُوحِيَ	-0.04420055
-3.134029	أُولَئِكَ	-0.07286598
-3.647694	أُولِي	-0.04420055
-3.647694	إِبْرَاهِيمَ	-0.04420055
-3.647694	إِخْرَاجًا	-0.04420055
-3.647694	إِذًا	-0.04420055
-2.441021	إِذَا	-0.05472961
-3.647694	إِذِ	-0.04420055
-3.134029	إِذْ	-0.04420055
-3.647694	إِرَمَ	-0.04420055
-3.647694	إِسْرَارًا	-0.04420055
-3.647694	إِطْعَامٌ	-0.04420055
-3.647694	إِلَهَ	-0.04420055
-3.647694	إِلَهِ	-0.04420055
-2.313375	إِلَى	-0.1013352
-3.647694	إِلَيَّ	-0.04420055
-3.647694	إِلَيْكَ	-0.04420055
-3.647694	إِلَيْكُمْ	-0.04420055
-3.647694	إِلَيْنَا	-0.04420055
-3.495546	إِلَيْهِ	-0.04420055
-2.245273	إِلَّا	-0.07549682
-3.647694	إِمَّا	-0.04420055
-3.647694	إِنِ	-0.04420055
-2.705074	إِنَّ	-0.06865324
-2.807001	إِنَّا	-0.05260328
-3.495546	إِنَّكَ	-0.04420055
-3.647694	إِنَّكُمْ	-0.04420055
-3.277206	إِنَّمَا	-0.07286598
-3.495546	إِنَّهَا	-0.04420055
-2.753054	إِنَّهُ	-0.1077684
-3.134029	إِنَّهُمْ	-0.04420055
-3.026532	إِنِّي	-0.04420055
-2.586549	إِنْ	-0.0642368
-3.647694	إِيلَافِهِمْ	-0.04420055
-3.647694	إِيمَانًا	-0.04420055
-3.647694	إِيَابَهُمْ	-0.04420055
-3.647694	إِيَّاكَ	-0.04420055
-3.647694	ابْتَغَى	-0.04420055
-3.647694	ابْتَلَاهُ	-0.04420055
-3.647694	ابْتِغَاءَ	-0.04420055
-3.495546	اتَّخَذَ	-0.04420055
-3.647694	اتَّسَقَ	-0.04420055
-3.647694	اجْهَرُوا	-0.04420055
-3.647694	اذْهَبْ	-0.04420055
-3.647694	ارْتَضَى	-0.04420055
-3.647694	ارْجِعِ	-0.04420055
-3.647694	ارْجِعِي	-0.04420055
-3.647694	ارْكَعُوا	-0.04420055
-3.647694	اسْتَغْفِرُوا	-0.04420055
-3.495546	اسْتَغْنَى	-0.1365851
-3.647694	اسْتَقَامُوا	-0.04420054
-3.647694	اسْتَمَعَ	-0.04420055
-3.647694	اسْتِكْبَارًا	-0.04420055
-3.277206	اسْمَ	-0.103558
-3.647694	اعْبُدُوا	-0.04420055
-3.647694	اغْدُوا	-0.04420054
-3.647694	اغْفِرْ	-0.04420055
-3.647694	اقْتَحَمَ	-0.04420055
-3.647694	اقْرَءُوا	-0.04420055
-3.647694	اقْرَأْ	-0.04420055
-3.647694	اكْتَالُوا	-0.04420054
-3.647694	التَّذْكِرَةِ	-0.04420055
-3.647694	التَّرَاقِيَ	-0.04420055
-3.647694	التَّقْوَى	-0.04420055
-3.647694	التَّكَاثُرُ	-0.04420055
-3.647694	التُّرَاثَ	-0.04420055
-3.647694	الثَّاقِبُ	-0.04420055
-3.647694	الدَّهْرِ	-0.04420055
-3.495546	الدُّنْيَا	-0.04420054
-3.647694	الدِّينَ	-0.04420055
-3.134029	الدِّينِ	-0.3858541
-3.495546	الذَّكَرَ	-0.1365851
-3.647694	الذِّكْرَ	-0.04420055
-3.277206	الذِّكْرَى	-0.2609153
-3.647694	الرَّجِيمِ	-0.04420055
-3.647694	الرَّاجِفَةُ	-0.04420055
-3.647694	الرَّادِفَةُ	-0.04420055
-3.647694	الرَّجْعِ	-0.04420055
-3.647694	الرَّحِيمِ	-0.04420055
-3.277206	الرَّحْمَنُ	-0.04420055
-3.026532	الرَّحْمَنِ	-0.0788333
-3.647694	الرَّسُولَ	-0.04420055
-3.647694	الرُّجْعَى	-0.04420055
-3.647694	الرُّسُلُ	-0.04420055
-3.647694	الرُّشْدِ	-0.04420055
-3.647694	الرُّوحُ	-0.04420055
-3.647694	الزَّبَانِيَةَ	-0.04420055
-3.495546	الزَّكَاةَ	-0.04420055
-3.647694	الزَّوْجَيْنِ	-0.04420055
-3.647694	السَّائِلَ	-0.04420055
-3.647694	السَّاعَةِ	-0.04420055
-3.647694	السَّاقُ	-0.04420055
-3.495546	السَّبِيلَ	-0.04420055
-3.647694	السَّرَائِرُ	-0.04420055
-3.277206	السَّعِيرِ	-0.2609153
-3.277206	السَّمَاءَ	-0.04420055
-2.868613	السَّمَاءُ	-0.04420055
-3.495546	السَّمَاءِ	-0.04420055
-3.495546	السَّمَاوَاتِ	-0.1365851
-3.647694	السَّمْعَ	-0.04420055
-3.647694	السُّجُودِ	-0.04420055
-3.647694	الشَّيْطَانِ	-0.04420055
-3.647694	الشَّافِعِينَ	-0.04420055
-3.647694	الشَّرُّ	-0.04420055
-3.647694	الشَّمْسَ	-0.04420055
-3.495546	الشَّمْسُ	-0.04420055
-3.647694	الشِّتَاءِ	-0.04420055
-3.647694	الشِّمَالِ	-0.04420055
-3.647694	الصَّاخَّةُ	-0.04420055
-3.647694	الصَّالِحَاتِ	-0.04420055
-3.647694	الصَّالِحُونَ	-0.04420055
-3.647694	الصَّالِحِينَ	-0.04420055
-3.647694	الصَّخْرَ	-0.04420055
-3.647694	الصَّدْعِ	-0.04420055
-3.495546	الصَّلَاةَ	-0.04420055
-3.647694	الصَّمَدُ	-0.04420055
-3.647694	الصُّحُفُ	-0.04420055
-3.647694	الصُّحُفِ	-0.04420055
-3.495546	الصُّدُورِ	-0.1365851
-3.647694	الصُّلْبِ	-0.04420055
-3.647694	الصُّورِ	-0.04420055
-3.647694	الصِّرَاطَ	-0.04420055
-3.647694	الضَّالِّينَ	-0.04420055
-3.647694	الطَّارِقُ	-0.04420055
-3.647694	الطَّامَّةُ	-0.04420055
-3.647694	الطَّرِيقَةِ	-0.04420055
-3.647694	الطَّعَامَ	-0.04420054
-3.647694	الطَّيْرِ	-0.04420055
-3.647694	الظَّالِمِينَ	-0.04420055
-3.647694	اللَّطِيفُ	-0.04420055
-2.807001	اللَّهَ	-0.04420055
-3.647694	اللَّهَبِ	-0.04420055
-2.522381	اللَّهُ	-0.04420055
-2.466484	اللَّهِ	-0.04420055
-3.647694	اللَّوَّامَةِ	-0.04420055
-3.277206	اللَّيْلَ	-0.04420055
-3.277206	اللَّيْلِ	-0.04420055
-3.647694	النَّارَ	-0.04420055
-3.495546	النَّارِ	-0.04420055
-3.647694	النَّاسَ	-0.04420055
-3.277206	النَّاسُ	-0.04420054
-3.026532	النَّاسِ	-0.2927052
-3.647694	النَّاقُورِ	-0.04420055
-3.647694	النَّبَإِ	-0.04420055
-3.647694	النَّجْدَيْنِ	-0.04420055
-3.647694	النَّجْمُ	-0.04420055
-3.277206	النَّعِيمِ	-0.2609153
-3.647694	النَّعْمَةِ	-0.04420055
-3.647694	النَّفَّاثَاتِ	-0.04420055
-3.647694	النَّفْسَ	-0.04420055
-3.647694	النَّفْسُ	-0.04420055
-3.647694	النَّهَارَ	-0.04420055
-3.647694	النَّهَارِ	-0.04420055
-3.495546	النُّجُومُ	-0.04420055
-3.647694	النُّشُورُ	-0.04420055
-3.647694	النُّفُوسُ	-0.04420055
-3.495546	الَّتِي	-0.04420054
-2.753054	الَّذِي	-0.05090968
-2.441021	الَّذِينَ	-0.2170249
-3.495546	الْآخِرَةَ	-0.1365851
-3.495546	الْآخِرَةِ	-0.04420055
-3.647694	الْآخِرِينَ	-0.04420055
-3.647694	الْآنَ	-0.04420055
-3.647694	الْآيَةَ	-0.04420055
-3.647694	الْأَبْتَرُ	-0.04420055
-3.647694	الْأَبْرَارَ	-0.04420055
-3.647694	الْأَبْرَارِ	-0.04420054
-3.647694	الْأَتْقَى	-0.04420055
-3.647694	الْأَجْدَاثِ	-0.04420055
-3.647694	الْأَرَائِكِ	-0.04420055
-3.134029	الْأَرْضَ	-0.04420055
-2.940434	الْأَرْضُ	-0.07286597
-3.134029	الْأَرْضِ	-0.04420055
-3.495546	الْأَشْقَى	-0.1365851
-3.277206	الْأَعْلَى	-0.2609153
-3.647694	الْأَعْمَى	-0.04420055
-3.647694	الْأَفْئِدَةِ	-0.04420055
-3.647694	الْأَقَاوِيلِ	-0.04420055
-3.647694	الْأَكْبَرَ	-0.04420055
-3.647694	الْأَكْرَمُ	-0.04420055
-3.647694	الْأَمِينِ	-0.04420055
-3.647694	الْأَنْهَارُ	-0.04420055
-3.495546	الْأَوَّلِينَ	-0.1365851
-3.647694	الْأَوْتَادِ	-0.04420055
-3.647694	الْأَيَّامِ	-0.04420055
-3.647694	الْأُخْدُودِ	-0.04420055
-3.495546	الْأُولَى	-0.1365851
-3.647694	الْإِبِلِ	-0.04420055
-3.134029	الْإِنْسَانَ	-0.06552029
-2.66187	الْإِنْسَانُ	-0.1255355
-3.647694	الْإِنْسَانِ	-0.04420055
-3.647694	الْإِنْسُ	-0.04420055
-3.647694	الْإِنْسِ	-0.04420055
-3.495546	الْبَرِيَّةِ	-0.1365851
-3.647694	الْبَشَرِ	-0.04420055
-3.495546	الْبَصَرَ	-0.04420055
-3.495546	الْبَصَرُ	-0.04420054
-3.495546	الْبَلَدِ	-0.04420054
-3.495546	الْبَيِّنَةُ	-0.1365851
-3.647694	الْبَيْتِ	-0.04420055
-3.647694	الْبُرُوجِ	-0.04420055
-3.647694	الْبِحَارُ	-0.04420055
-3.647694	الْبِلَادِ	-0.04420055
-3.647694	الْجَارِيَةِ	-0.04420055
-3.277206	الْجَحِيمَ	-0.04420054
-3.495546	الْجَحِيمُ	-0.04420055
-3.647694	الْجَحِيمِ	-0.04420055
-3.647694	الْجَنَّةَ	-0.04420055
-3.647694	الْجَنَّةُ	-0.04420055
-3.647694	الْجَنَّةِ	-0.04420055
-3.647694	الْجَهْرَ	-0.04420054
-3.647694	الْجَوَارِ	-0.04420055
-3.647694	الْجُنُودِ	-0.04420055
-3.134029	الْجِبَالُ	-0.04420054
-3.647694	الْجِبَالِ	-0.04420055
-3.647694	الْجِنَّةِ	-0.04420055
-3.647694	الْجِنِّ	-0.04420055
-3.647694	الْحَافِرَةِ	-0.04420055
-3.495546	الْحَاقَّةُ	-0.1365851
-3.647694	الْحَاكِمِينَ	-0.04420055
-3.647694	الْحَدِيثِ	-0.04420055
-3.647694	الْحَرِيقِ	-0.04420055
-3.647694	الْحَطَبِ	-0.04420055
-3.647694	الْحَقُّ	-0.04420055
-3.647694	الْحَمِيدِ	-0.04420055
-3.647694	الْحَمْدُ	-0.04420055
-3.495546	الْحَيَاةَ	-0.1365851
-3.647694	الْحُطَمَةُ	-0.04420055
-3.647694	الْحُطَمَةِ	-0.04420055
-3.647694	الْحُوتِ	-0.04420055
-3.647694	الْخَائِضِينَ	-0.04420055
-3.647694	الْخَاطِئُونَ	-0.04420055
-3.647694	الْخَالِيَةِ	-0.04420055
-3.647694	الْخَبِيرُ	-0.04420055
-3.647694	الْخَنَّاسِ	-0.04420055
-3.647694	الْخَيْرُ	-0.04420055
-3.647694	الْخَيْرِ	-0.04420055
-3.647694	الْخُرْطُومِ	-0.04420055
-3.495546	الْعَاجِلَةَ	-0.04420054
-3.647694	الْعَادُونَ	-0.04420055
-3.277206	الْعَالَمِينَ	-0.2609153
-3.647694	الْعَذَابَ	-0.04420055
-3.647694	الْعَذَابُ	-0.04420055
-3.495546	الْعَرْشِ	-0.04420055
-3.647694	الْعَزِيزُ	-0.04420055
-3.647694	الْعَزِيزِ	-0.04420055
-3.277206	الْعَظِيمِ	-0.2609153
-3.647694	الْعَقَبَةَ	-0.04420055
-3.647694	الْعَقَبَةُ	-0.04420055
-3.647694	الْعُسْرِ	-0.04420055
-3.647694	الْعُقَدِ	-0.04420055
-3.647694	الْعِشَارُ	-0.04420055
-3.647694	الْعِلْمُ	-0.04420055
-3.647694	الْعِمَادِ	-0.04420055
-3.647694	الْغَاشِيَةِ	-0.04420055
-3.495546	الْغَفُورُ	-0.04420054
-3.647694	الْغَيْبُ	-0.04420055
-3.495546	الْغَيْبِ	-0.04420055
-3.647694	الْغَيْظِ	-0.04420055
-3.647694	الْفَجَرَةُ	-0.04420055
-3.647694	الْفَجْرِ	-0.04420055
-3.647694	الْفَسَادَ	-0.04420055
-3.277206	الْفَصْلِ	-0.08794092
-3.647694	الْفَلَقِ	-0.04420055
-3.647694	الْفَوْزُ	-0.04420055
-3.647694	الْفُجَّارَ	-0.04420054
-3.647694	الْفُجَّارِ	-0.04420054
-3.647694	الْفِرَاقُ	-0.04420055
-3.647694	الْفِيلِ	-0.04420055
-3.647694	الْقَادِرُونَ	-0.04420055
-3.495546	الْقَارِعَةُ	-0.1365851
-3.495546	الْقَاسِطُونَ	-0.04420055
-3.647694	الْقَاضِيَةَ	-0.04420055
-3.495546	الْقَدْرِ	-0.103558
-3.647694	الْقَمَرَ	-0.04420055
-3.647694	الْقَمَرُ	-0.04420055
-3.647694	الْقَوْمَ	-0.04420055
-3.647694	الْقَيِّمَةِ	-0.04420055
-3.647694	الْقُبُورُ	-0.04420055
-3.647694	الْقُبُورِ	-0.04420055
-3.495546	الْقُرْآنَ	-0.04420055
-3.647694	الْقُرْآنُ	-0.04420055
-3.647694	الْقُرْآنِ	-0.04420055
-3.277206	الْقِيَامَةِ	-0.103558
-3.647694	الْكَافِرُ	-0.04420055
-3.495546	الْكَافِرُونَ	-0.04420054
-3.134029	الْكَافِرِينَ	-0.04420055
-3.647694	الْكَبِيرُ	-0.04420055
-3.647694	الْكَرِيمِ	-0.04420055
-3.647694	الْكَفَرَةُ	-0.04420055
-3.647694	الْكَوَاكِبُ	-0.04420055
-3.647694	الْكَوْثَرَ	-0.04420055
-3.647694	الْكُبَرِ	-0.04420055
-3.277206	الْكُبْرَى	-0.2609153
-3.647694	الْكُفَّارُ	-0.04420054
-3.647694	الْكُفَّارِ	-0.04420055
-3.647694	الْكُنَّسِ	-0.04420055
-3.647694	الْكِتَابَ	-0.04420055
-3.647694	الْكِتَابِ	-0.04420055
-3.647694	الْمَأْوَى	-0.04420055
-3.647694	الْمَاءَ	-0.04420055
-3.647694	الْمَاءُ	-0.04420055
-3.647694	الْمَاعُونَ	-0.04420055
-3.647694	الْمَالَ	-0.04420055
-3.647694	الْمَبْثُوثِ	-0.04420055
-3.647694	الْمَجِيدُ	-0.04420055
-3.495546	الْمَرْءُ	-0.04420055
-3.647694	الْمَرْعَى	-0.04420055
-3.647694	الْمَسَاجِدَ	-0.04420055
-3.647694	الْمَسَاقُ	-0.04420055
-3.647694	الْمَشَارِقِ	-0.04420055
-3.647694	الْمَشْأَمَةِ	-0.04420055
-3.647694	الْمَشْرِقِ	-0.04420055
-3.647694	الْمَصِيرُ	-0.04420055
-3.647694	الْمَعَارِجِ	-0.04420055
-3.647694	الْمَغْضُوبِ	-0.04420055
-3.647694	الْمَغْفِرَةِ	-0.04420055
-3.647694	الْمَفَرُّ	-0.04420055
-3.647694	الْمَفْتُونُ	-0.04420055
-3.647694	الْمَقَابِرَ	-0.04420055
-3.495546	الْمَلَائِكَةُ	-0.1365851
-3.647694	الْمَنْفُوشِ	-0.04420055
-3.647694	الْمَوْءُودَةُ	-0.04420055
-3.647694	الْمَوْتَ	-0.04420055
-3.647694	الْمَوْتَى	-0.04420055
-3.647694	الْمَوْعُودِ	-0.04420055
-3.647694	الْمَيْمَنَةِ	-0.04420055
-3.647694	الْمُؤْمِنِينَ	-0.04420055
-3.647694	الْمُبِينِ	-0.04420055
-3.647694	الْمُتَنَافِسُونَ	-0.04420055
-3.647694	الْمُتَّقِينَ	-0.04420055
-3.647694	الْمُجْرِمُ	-0.04420054
-3.647694	الْمُجْرِمِينَ	-0.04420055
-3.647694	الْمُحْسِنِينَ	-0.04420055
-3.647694	الْمُدَّثِّرُ	-0.04420055
-3.647694	الْمُزَّمِّلُ	-0.04420055
-3.647694	الْمُسْتَقَرُّ	-0.04420055
-3.647694	الْمُسْتَقِيمَ	-0.04420055
-3.647694	الْمُسْلِمُونَ	-0.04420055
-3.647694	الْمُسْلِمِينَ	-0.04420055
-3.495546	الْمُصَلِّينَ	-0.1365851
-3.647694	الْمُطْمَئِنَّةُ	-0.04420055
-3.647694	الْمُعْصِرَاتِ	-0.04420055
-3.647694	الْمُقَدَّسِ	-0.04420055
-3.495546	الْمُقَرَّبُونَ	-0.1365851
-3.647694	الْمُكَذِّبِينَ	-0.04420055
-3.647694	الْمُلْكُ	-0.04420055
-3.647694	الْمُوقَدَةُ	-0.04420055
-3.647694	الْمِسْكِينَ	-0.04420055
-3.647694	الْمِسْكِينِ	-0.04420055
-3.647694	الْهَوَى	-0.04420055
-3.495546	الْهُدَى	-0.04420053
-3.647694	الْوَاقِعَةُ	-0.04420055
-3.647694	الْوَتِينَ	-0.04420055
-3.647694	الْوَدُودُ	-0.04420055
-3.647694	الْوَسْوَاسِ	-0.04420055
-3.647694	الْوَعْدُ	-0.04420055
-3.647694	الْوَقُودِ	-0.04420055
-3.647694	الْوُحُوشُ	-0.04420055
-3.647694	الْوِلْدَانَ	-0.04420055
-3.277206	الْيَتِيمَ	-0.103558
-3.647694	الْيَقِينُ	-0.04420055
-3.277206	الْيَقِينِ	-0.2609153
-3.495546	الْيَمِينِ	-0.04420054
-3.495546	الْيَوْمَ	-0.04420055
-3.647694	الْيَوْمُ	-0.04420055
-3.647694	الْيَوْمِ	-0.04420055
-3.495546	امْرِئٍ	-0.1365851
-3.647694	انْبَعَثَ	-0.04420055
-3.647694	انْتَثَرَتْ	-0.04420055
-3.647694	انْشَقَّتْ	-0.04420055
-3.647694	انْطَلِقُوا	-0.04420055
-3.647694	انْفَطَرَتْ	-0.04420055
-3.495546	انْقَلَبُوا	-0.04420055
-3.647694	انْقُصْ	-0.04420054
-3.647694	انْكَدَرَتْ	-0.04420055
-3.647694	اهْدِنَا	-0.04420055
-3.647694	بَاسِرَةٌ	-0.04420055
-3.647694	بَاقِيَةٍ	-0.04420055
-3.647694	بَالِغَةٌ	-0.04420055
-3.647694	بَخِلَ	-0.04420055
-3.647694	بَخْسًا	-0.04420055
-3.647694	بَدَّلْنَا	-0.04420055
-3.647694	بَرَرَةٍ	-0.04420055
-3.647694	بَرِقَ	-0.04420055
-3.647694	بَرْدًا	-0.04420055
-3.495546	بَصِيرًا	-0.1365851
-3.647694	بَصِيرٌ	-0.04420055
-3.647694	بَصِيرَةٌ	-0.04420055
-3.647694	بَطْشَ	-0.04420055
-3.647694	بَعِيدًا	-0.04420055
-3.495546	بَعْدَ	-0.1365851
-3.647694	بَعْدَهُ	-0.04420055
-3.647694	بَعْدُ	-0.04420055
-3.647694	بَعْدِ	-0.04420054
-3.647694	بَعْضٍ	-0.04420055
-3.647694	بَعْضَ	-0.04420055
-3.647694	بَعْضُهُمْ	-0.04420054
-3.647694	بَلَاغًا	-0.04420055
-3.647694	بَلَغَتِ	-0.04420055
-3.647694	بَلَوْنَا	-0.04420055
-3.647694	بَلَوْنَاهُمْ	-0.04420055
-3.495546	بَلَى	-0.04420055
-3.647694	بَلِ	-0.04420055
-3.277206	بَلْ	-0.04420055
-3.647694	بَنَانَهُ	-0.04420055
-3.495546	بَنَاهَا	-0.1365851
-3.647694	بَيَانَهُ	-0.04420055
-3.647694	بَيْتِيَ	-0.04420055
-3.647694	بَيْنَهُمَا	-0.04420055
-3.647694	بَيْنِ	-0.04420055
-3.647694	بُعْثِرَ	-0.04420054
-3.647694	بُعْثِرَتْ	-0.04420055
-3.647694	بُكْرَةً	-0.04420055
-3.647694	بِآنِيَةٍ	-0.04420055
-3.495546	بِآيَاتِنَا	-0.04420055
-3.647694	بِأَبْصَارِهِمْ	-0.04420054
-3.647694	بِأَحْكَمِ	-0.04420055
-3.647694	بِأَصْحَابِ	-0.04420055
-3.647694	بِأَمْوَالٍ	-0.04420055
-3.495546	بِأَنَّ	-0.04420055
-3.647694	بِأَيِّ	-0.04420055
-3.647694	بِأَيْدِي	-0.04420055
-3.647694	بِأَيْيِكُمُ	-0.04420055
-3.647694	بِإِذْنِ	-0.04420055
-3.495546	بِاسْمِ	-0.1365851
-3.647694	بِالتَّقْوَى	-0.04420055
-3.277206	بِالدِّينِ	-0.2609153
-3.647694	بِالسَّاقِ	-0.04420055
-3.647694	بِالسَّاهِرَةِ	-0.04420055
-3.647694	بِالشَّفَقِ	-0.04420055
-3.647694	بِالصَّبْرِ	-0.04420055
-3.647694	بِالطَّاغِيَةِ	-0.04420055
-3.647694	بِاللَّهِ	-0.04420055
-3.495546	بِاللَّهِ	-0.04420055
-3.647694	بِالنَّاصِيَةِ	-0.04420055
-3.647694	بِالنَّذْرِ	-0.04420055
-3.647694	بِالنَّفْسِ	-0.04420055
-3.647694	بِالْأُفُقِ	-0.04420055
-3.647694	بِالْحَقِّ	-0.04420055
-3.495546	بِالْحُسْنَى	-0.1365851
-3.647694	بِالْخَاطِئَةِ	-0.04420055
-3.647694	بِالْخُنَّسِ	-0.04420055
-3.647694	بِالْعَرَاءِ	-0.04420055
-3.647694	بِالْغَيْبِ	-0.04420054
-3.647694	بِالْقَارِعَةِ	-0.04420055
-3.647694	بِالْقَلَمِ	-0.04420055
-3.647694	بِالْمَرْحَمَةِ	-0.04420055
-3.647694	بِالْمُؤْمِنِينَ	-0.04420055
-3.647694	بِالْمُجْرِمِينَ	-0.04420055
-3.647694	بِالْمُهْتَدِينَ	-0.04420055
-3.647694	بِالْهَزْلِ	-0.04420055
-3.495546	بِالْوَادِ	-0.04420054
-3.647694	بِالْيَمِينِ	-0.04420055
-3.647694	بِبَنِيهِ	-0.04420055
-3.647694	بِجَهَنَّمَ	-0.04420055
-3.647694	بِحَمْدِ	-0.04420055
-3.647694	بِحِجَارَةٍ	-0.04420055
-3.647694	بِذَاتِ	-0.04420055
-3.647694	بِذَلِكَ	-0.04420055
-3.495546	بِذَنْبِهِمْ	-0.04420055
-3.495546	بِرَبِّ	-0.04420055
-3.647694	بِرَبِّكَ	-0.04420055
-3.647694	بِرَبِّنَا	-0.04420055
-3.647694	بِرَبِّهِ	-0.04420055
-3.647694	بِرَبِّهِمْ	-0.04420055
-3.647694	بِرِجَالٍ	-0.04420055
-3.647694	بِرِيحٍ	-0.04420055
-3.647694	بِسَاطًا	-0.04420055
-3.647694	بِسْمِ	-0.04420055
-3.647694	بِشَرَرٍ	-0.04420055
-3.647694	بِشَهَادَاتِهِمْ	-0.04420055
-3.647694	بِشُرَكَائِهِمْ	-0.04420055
-3.647694	بِشِمَالِهِ	-0.04420055
-3.647694	بِضَنِينٍ	-0.04420055
-3.647694	بِطَغْوَاهَا	-0.04420055
-3.647694	بِعَادٍ	-0.04420055
-3.495546	بِعَذَابٍ	-0.04420055
-3.647694	بِغَائِبِينَ	-0.04420055
-3.647694	بِقَادِرٍ	-0.04420054
-3.495546	بِقَوْلِ	-0.04420054
-3.647694	بِكُلِّ	-0.04420054
-3.647694	بِكُمُ	-0.04420055
-2.868613	بِمَا	-0.04420055
-3.647694	بِمَاءٍ	-0.04420055
-3.495546	بِمَجْنُونٍ	-0.1365851
-3.647694	بِمَسْبُوقِينَ	-0.04420055
-3.647694	بِمَصَابِيحَ	-0.04420055
-3.495546	بِمَنْ	-0.04420055
-3.647694	بِمُصَيْطِرٍ	-0.04420055
-3.647694	بِنَمِيمٍ	-0.04420055
-3.495546	بِنِعْمَةِ	-0.1365851
-3.495546	بِهَا	-0.04420055
-3.134029	بِهَذَا	-0.08794092
-2.586549	بِهِ	-0.04420056
-3.277206	بِهِمْ	-0.04420055
-3.647694	بِيَدِهِ	-0.04420055
-3.647694	بِيَمِينِهِ	-0.04420055
-3.134029	بِيَوْمِ	-0.1957952
-3.647694	تَأْتِيَهُمُ	-0.04420055
-3.647694	تَبَارًا	-0.04420055
-3.647694	تَبَارَكَ	-0.04420055
-3.647694	تَبَّتْ	-0.04420055
-3.647694	تَبْتِيلًا	-0.04420055
-3.647694	تَبْدِيلًا	-0.04420055
-3.647694	تَتَّقُونَ	-0.04420055
-3.647694	تَتْبَعُهَا	-0.04420055
-3.647694	تَجَلَّى	-0.04420055
-3.647694	تَجِدُوهُ	-0.04420055
-3.495546	تَجْرِي	-0.1365851
-3.647694	تَحَاضُّونَ	-0.04420054
-3.647694	تَحَرَّوْا	-0.04420055
-3.647694	تَحْتِهَا	-0.04420055
-3.495546	تَحْكُمُونَ	-0.1365851
-3.647694	تَخَيَّرُونَ	-0.04420055
-3.647694	تَخْفَى	-0.04420054
-3.647694	تَدَارَكَهُ	-0.04420055
-3.647694	تَدَّعُونَ	-0.04420055
-3.647694	تَدْرُسُونَ	-0.04420055
-3.647694	تَدْعُو	-0.04420055
-3.647694	تَدْعُوا	-0.04420055
-3.647694	تَذَرُ	-0.04420055
-3.495546	تَذَرُنَّ	-0.04420055
-3.647694	تَذَرْ	-0.04420054
-3.647694	تَذَرْهُمْ	-0.04420055
-3.647694	تَذَكَّرُونَ	-0.04420055
-3.647694	تَذْكِرَةً	-0.04420055
-3.277206	تَذْكِرَةٌ	-0.103558
-3.647694	تَذْلِيلًا	-0.04420055
-3.647694	تَذْهَبُونَ	-0.04420055
-3.647694	تَرَ	-0.04420055
-3.647694	تَرَدَّى	-0.04420055
-3.647694	تَرَوْا	-0.04420055
-3.277206	تَرَى	-0.04420055
-3.647694	تَرْتِيلًا	-0.04420055
-3.647694	تَرْجُفُ	-0.04420055
-3.647694	تَرْجُونَ	-0.04420055
-3.647694	تَرْمِي	-0.04420055
-3.647694	تَرْمِيهِمْ	-0.04420055
-3.647694	تَرْهَقُهَا	-0.04420055
-3.647694	تَرْهَقُهُمْ	-0.04420055
-3.495546	تَزَكَّى	-0.1365851
-3.647694	تَزِدِ	-0.04420055
-3.647694	تَسْأَلُهُمْ	-0.04420055
-3.647694	تَسْتَكْثِرُ	-0.04420055
-3.647694	تَسْمَعُ	-0.04420055
-3.647694	تَسْنِيمٍ	-0.04420055
-3.647694	تَشَاءُونَ	-0.04420055
-3.647694	تَشْكُرُونَ	-0.04420055
-3.647694	تَصَدَّى	-0.04420055
-3.647694	تَصْلَى	-0.04420055
-3.647694	تَضْلِيلٍ	-0.04420055
-3.647694	تَطَّلِعُ	-0.04420054
-3.647694	تَظُنُّ	-0.04420055
-3.647694	تَعَالَى	-0.04420055
-3.647694	تَعْبُدُونَ	-0.04420055
-3.647694	تَعْرُجُ	-0.04420055
-3.647694	تَعْرِفُ	-0.04420055
-3.277206	تَعْلَمُونَ	-0.103558
-3.647694	تَعْمَلُونَ	-0.04420055
-3.647694	تَفَاوُتٍ	-0.04420055
-3.647694	تَفَرَّقَ	-0.04420055
-3.647694	تَفُورُ	-0.04420055
-3.647694	تَفْجِيرًا	-0.04420055
-3.647694	تَفْعَلُونَ	-0.04420055
-3.647694	تَقَوَّلَ	-0.04420055
-3.647694	تَقُولَ	-0.04420055
-3.647694	تَقُومُ	-0.04420055
-3.647694	تَقْدِيرًا	-0.04420055
-3.647694	تَقْهَرْ	-0.04420055
-3.647694	تَقْوِيمٍ	-0.04420055
-3.647694	تَكَادُ	-0.04420055
-3.647694	تَكُنْ	-0.04420055
-3.647694	تَكُونُ	-0.04420055
-3.647694	تَكْذِيبٍ	-0.04420055
-3.647694	تَلَاهَا	-0.04420055
-3.647694	تَلَظَّى	-0.04420055
-3.647694	تَلَهَّى	-0.04420055
-3.647694	تَمَيَّزُ	-0.04420055
-3.647694	تَمُورُ	-0.04420055
-3.647694	تَمْلِكُ	-0.04420055
-3.647694	تَمْنُنْ	-0.04420055
-3.647694	تَمْهِيدًا	-0.04420055
-3.647694	تَنَزَّلُ	-0.04420055
-3.647694	تَنَفَّسَ	-0.04420055
-3.647694	تَنْزِيلًا	-0.04420055
-3.647694	تَنْزِيلٌ	-0.04420055
-3.647694	تَنْسَى	-0.04420055
-3.647694	تَنْفَعُهُمْ	-0.04420055
-3.647694	تَنْهَرْ	-0.04420055
-3.647694	تَوَكَّلْنَا	-0.04420055
-3.647694	تَوَلَّى	-0.04420055
-3.647694	تَوَّابًا	-0.04420055
-3.647694	تَيَسَّرَ	-0.04420055
-3.647694	تُؤْثِرُونَ	-0.04420055
-3.647694	تُؤْمِنُونَ	-0.04420055
-3.647694	تُؤْوِيهِ	-0.04420055
-3.495546	تُبْصِرُونَ	-0.1365851
-3.647694	تُبْقِي	-0.04420055
-3.647694	تُبْلَى	-0.04420055
-3.647694	تُتْلَى	-0.04420055
-3.647694	تُجْزَى	-0.04420055
-3.647694	تُحَدِّثُ	-0.04420055
-3.647694	تُحَرِّكْ	-0.04420055
-3.647694	تُحِبُّونَ	-0.04420055
-3.647694	تُحْشَرُونَ	-0.04420055
-3.647694	تُحْصُوهُ	-0.04420055
-3.647694	تُدْهِنُ	-0.04420055
-3.647694	تُرَابًا	-0.04420055
-3.647694	تُسَبِّحُونَ	-0.04420055
-3.647694	تُسَمَّى	-0.04420055
-3.647694	تُسْقَى	-0.04420055
-3.647694	تُطِعِ	-0.04420055
-3.647694	تُطِعْ	-0.04420055
-3.647694	تُطِعْهُ	-0.04420055
-3.647694	تُعْرَضُونَ	-0.04420055
-3.647694	تُقَدِّمُوا	-0.04420055
-3.495546	تُكَذِّبُونَ	-0.04420055
-3.647694	تُكْرِمُونَ	-0.04420055
-3.495546	تُوعَدُونَ	-0.04420055
-3.647694	تِسْعَةَ	-0.04420055
-3.647694	تِلْكَ	-0.04420055
-3.647694	ثَجَّاجًا	-0.04420055
-3.647694	ثَقُلَتْ	-0.04420055
-3.495546	ثَقِيلًا	-0.1365851
-3.647694	ثَلَاثِ	-0.04420055
-3.647694	ثَمَانِيَةٌ	-0.04420055
-3.495546	ثَمُودُ	-0.04420055
-3.495546	ثَمَّ	-0.04420055
-3.647694	ثُبُورًا	-0.04420055
-3.647694	ثُلُثَيِ	-0.04420055
-3.277206	ثُمَّ	-0.04420054
-3.647694	ثُوِّبَ	-0.04420055
-3.647694	ثِيَابَهُمْ	-0.04420055
-3.647694	ثِيَابُ	-0.04420055
-3.647694	جَاءَ	-0.04420055
-3.647694	جَاءَتِ	-0.04420055
-3.647694	جَاءَتْهُمُ	-0.04420055
-3.647694	جَاءَكَ	-0.04420055
-3.647694	جَاءَنَا	-0.04420055
-3.647694	جَاءَهُ	-0.04420055
-3.647694	جَابُوا	-0.04420055
-3.647694	جَارِيَةٌ	-0.04420055
-3.647694	جَحِيمٍ	-0.04420055
-3.647694	جَدُّ	-0.04420055
-3.277206	جَزَاءً	-0.04420055
-3.647694	جَزَاؤُهُمْ	-0.04420055
-3.647694	جَزُوعًا	-0.04420055
-3.495546	جَعَلَ	-0.1365851
-3.647694	جَعَلُوا	-0.04420055
-3.647694	جَعَلْنَا	-0.04420055
-3.647694	جَلَّاهَا	-0.04420055
-3.647694	جَمَعَ	-0.04420055
-3.647694	جَمَعْنَاكُمْ	-0.04420055
-3.647694	جَمِيعًا	-0.04420055
-3.495546	جَمِيلًا	-0.1365851
-3.647694	جَمًّا	-0.04420055
-3.647694	جَمْعًا	-0.04420055
-3.647694	جَمْعَهُ	-0.04420055
-3.647694	جَنَّاتٌ	-0.04420055
-3.495546	جَنَّاتٍ	-0.04420055
-3.647694	جَنَّاتُ	-0.04420055
-3.647694	جَنَّاتِ	-0.04420055
-3.647694	جَنَّةً	-0.04420055
-3.647694	جَنَّةٍ	-0.04420055
-3.647694	جَنَّةَ	-0.04420055
-3.647694	جَنَّتِي	-0.04420055
-3.134029	جَهَنَّمَ	-0.07883331
-3.647694	جُنُودَ	-0.04420055
-3.647694	جُنْدٌ	-0.04420055
-3.647694	جُوعٍ	-0.04420054
-3.647694	جِمَالَتٌ	-0.04420055
-3.647694	جِهَارًا	-0.04420055
-3.647694	جِيدِهَا	-0.04420055
-3.647694	حَاجِزِينَ	-0.04420055
-3.647694	حَاسِدٍ	-0.04420055
-3.647694	حَاصِبًا	-0.04420055
-3.647694	حَافِظٌ	-0.04420055
-3.647694	حَافِظُونَ	-0.04420055
-3.647694	حَافِظِينَ	-0.04420055
-3.647694	حَامِيَةً	-0.04420055
-3.647694	حَامِيَةٌ	-0.04420055
-3.495546	حَبًّا	-0.04420054
-3.647694	حَبْلٌ	-0.04420055
-3.134029	حَتَّى	-0.04420055
-3.647694	حَدَائِقَ	-0.04420055
-3.647694	حَدِيثٍ	-0.04420055
-3.647694	حَدِيثُ	-0.04420054
-3.647694	حَرَسًا	-0.04420055
-3.647694	حَرْثِكُمْ	-0.04420055
-3.647694	حَرْدٍ	-0.04420055
-3.647694	حَسَدَ	-0.04420055
-3.647694	حَسَنًا	-0.04420054
-3.647694	حَسِبْتَهُمْ	-0.04420055
-3.647694	حَسِيرٌ	-0.04420055
-3.647694	حَطَبًا	-0.04420055
-3.647694	حَقٌّ	-0.04420055
-3.647694	حَكِيمًا	-0.04420055
-3.647694	حَلَّافٍ	-0.04420055
-3.647694	حَمَلْنَاكُمْ	-0.04420055
-3.495546	حَمِيمًا	-0.04420054
-3.495546	حَمِيمٌ	-0.04420053
-3.647694	حَمَّالَةَ	-0.04420055
-3.647694	حَيْثُ	-0.04420055
-3.647694	حُبًّا	-0.04420055
-3.647694	حُبِّهِ	-0.04420055
-3.647694	حُسُومًا	-0.04420055
-3.647694	حُشِرَتْ	-0.04420055
-3.647694	حُمُرٌ	-0.04420055
-3.647694	حُنَفَاءَ	-0.04420055
-3.647694	حِجْرٍ	-0.04420055
-3.277206	حِسَابًا	-0.103558
-3.647694	حِسَابَهُمْ	-0.04420055
-3.495546	حِسَابِيَهْ	-0.1365851
-3.647694	حِلٌّ	-0.04420055
-3.647694	حِينٌ	-0.04420055
-3.647694	خَابَ	-0.04420055
-3.647694	خَاسِئًا	-0.04420055
-3.647694	خَاسِرَةٌ	-0.04420055
-3.647694	خَاشِعَةً	-0.04420055
-3.495546	خَاشِعَةٌ	-0.1365851
-3.647694	خَاطِئَةٍ	-0.04420055
-3.647694	خَافَ	-0.04420055
-3.647694	خَافِيَةٌ	-0.04420055
-3.495546	خَالِدِينَ	-0.1365851
-3.647694	خَاوِيَةٍ	-0.04420055
-3.647694	خَزَنَتُهَا	-0.04420055
-3.647694	خَسَارًا	-0.04420055
-3.647694	خَشِيَ	-0.04420055
-3.647694	خَطِيئَاتِهِمْ	-0.04420055
-3.647694	خَفَّتْ	-0.04420055
-2.940434	خَلَقَ	-0.0630991
-3.647694	خَلَقَكَ	-0.04420055
-3.647694	خَلَقَكُمْ	-0.04420055
-3.495546	خَلَقَهُ	-0.04420054
-3.647694	خَلَقْتُ	-0.04420055
-3.495546	خَلَقْنَا	-0.1365851
-3.495546	خَلَقْنَاهُمْ	-0.04420055
-3.647694	خَلْفِهِ	-0.04420055
-3.647694	خَلْقًا	-0.04420055
-3.647694	خَلْقِ	-0.04420055
-3.647694	خَمْسِينَ	-0.04420055
-3.647694	خَوْفٍ	-0.04420055
-3.134029	خَيْرًا	-0.04420055
-3.277206	خَيْرٌ	-0.04420055
-3.647694	خَيْرٍ	-0.04420055
-3.647694	خَيْرُ	-0.04420055
-3.647694	خُذُوهُ	-0.04420055
-3.647694	خُسْرٍ	-0.04420055
-3.647694	خُضْرٌ	-0.04420055
-3.647694	خُلُقٍ	-0.04420055
-3.277206	خُلِقَ	-0.04420055
-3.647694	خُلِقَتْ	-0.04420055
-3.647694	خِتَامُهُ	-0.04420055
-3.647694	خِطَابًا	-0.04420055
-3.647694	دَائِمُونَ	-0.04420055
-3.647694	دَافِعٌ	-0.04420055
-3.647694	دَافِقٍ	-0.04420055
-3.647694	دَانِيَةٌ	-0.04420055
-3.647694	دَحَاهَا	-0.04420055
-3.647694	دَخَلَ	-0.04420055
-3.647694	دَسَّاهَا	-0.04420055
-3.647694	دَعَوْتُ	-0.04420055
-3.495546	دَعَوْتُهُمْ	-0.04420055
-3.495546	دَكًّا	-0.04420053
-3.647694	دَكَّةً	-0.04420055
-3.647694	دَيَّارًا	-0.04420055
-3.647694	دُعَائِي	-0.04420055
-3.647694	دُكَّتِ	-0.04420054
-3.647694	دُونَ	-0.04420055
-3.647694	دُونِ	-0.04420054
-3.647694	دُونِهِ	-0.04420055
-3.647694	دِهَاقًا	-0.04420055
-3.647694	دِينُ	-0.04420055
-3.647694	دِينُكُمْ	-0.04420055
-3.495546	دِينِ	-0.04420054
-3.134029	ذَا	-0.04420055
-3.647694	ذَاتَ	-0.04420055
-3.134029	ذَاتِ	-0.04420054
-3.647694	ذَرَأَكُمْ	-0.04420055
-3.647694	ذَرَّةٍ	-0.04420055
-3.647694	ذَرْعُهَا	-0.04420055
-3.647694	ذَرْنِي	-0.04420055
-3.647694	ذَكَرَهُ	-0.04420055
-3.647694	ذَلُولًا	-0.04420055
-2.622579	ذَلِكَ	-0.05625482
-3.647694	ذَنْبٍ	-0.04420055
-3.647694	ذَهَبَ	-0.04420055
-3.647694	ذُنُوبِكُمْ	-0.04420055
-3.647694	ذُو	-0.04420055
-3.647694	ذِرَاعًا	-0.04420055
-3.647694	ذِكْرًا	-0.04420055
-3.647694	ذِكْرٌ	-0.04420055
-3.647694	ذِكْرَاهَا	-0.04420055
-3.647694	ذِكْرَكَ	-0.04420055
-3.647694	ذِكْرَى	-0.04420055
-3.647694	ذِكْرِ	-0.04420054
-3.647694	ذِلَّةٌ	-0.04420055
-2.940434	ذِي	-0.04420055
-3.495546	رَآهُ	-0.04420055
-3.647694	رَأَوْا	-0.04420054
-3.647694	رَأَوْهَا	-0.04420055
-3.647694	رَأَوْهُ	-0.04420055
-3.647694	رَأَوْهُمْ	-0.04420055
-3.495546	رَأَيْتَ	-0.04420055
-3.647694	رَأَيْتَهُمْ	-0.04420055
-3.647694	رَابِيَةً	-0.04420055
-3.647694	رَاضِيَةً	-0.04420055
-3.647694	رَاضِيَةٌ	-0.04420055
-3.647694	رَاضِيَةٍ	-0.04420055
-3.647694	رَاعُونَ	-0.04420055
-3.647694	رَاغِبُونَ	-0.04420055
-3.647694	رَاقٍ	-0.04420055
-3.647694	رَانَ	-0.04420054
-3.647694	رَبَّ	-0.04420055
-3.495546	رَبَّكَ	-0.04420055
-3.647694	رَبَّكُمْ	-0.04420055
-3.495546	رَبَّهُ	-0.04420054
-3.495546	رَبَّهُمْ	-0.04420055
-3.495546	رَبُّ	-0.04420055
-3.026532	رَبُّكَ	-0.04420055
-3.647694	رَبُّكُمُ	-0.04420055
-3.647694	رَبُّنَا	-0.04420055
-3.277206	رَبُّهُ	-0.04420055
-3.277206	رَبُّهُمْ	-0.04420055
-3.026532	رَبِّ	-0.06865325
-2.66187	رَبِّكَ	-0.04420055
-3.647694	رَبِّكِ	-0.04420055
-3.134029	رَبِّنَا	-0.04420055
-3.647694	رَبِّهَا	-0.04420055
-2.940434	رَبِّهِ	-0.04420055
-2.868613	رَبِّهِمْ	-0.04420055
-3.277206	رَبِّي	-0.04420055
-3.647694	رَجِيمٍ	-0.04420055
-3.647694	رَجْعِهِ	-0.04420055
-3.647694	رَحِمَنَا	-0.04420055
-3.647694	رَحِيقٍ	-0.04420055
-3.647694	رَحِيمٌ	-0.04420055
-3.647694	رَحْمَتِهِ	-0.04420055
-3.647694	رَدَدْنَاهُ	-0.04420055
-3.495546	رَسُولًا	-0.04420054
-3.647694	رَسُولٌ	-0.04420055
-3.495546	رَسُولٍ	-0.04420055
-3.647694	رَسُولَ	-0.04420055
-3.647694	رَسُولُ	-0.04420055
-3.277206	رَشَدًا	-0.2609153
-3.495546	رَصَدًا	-0.1365851
-3.647694	رَضِيَ	-0.04420054
-3.647694	رَفَعَ	-0.04420055
-3.647694	رَقَبَةٍ	-0.04420055
-3.647694	رَكَّبَكَ	-0.04420055
-3.495546	رَهَقًا	-0.1365851
-3.647694	رَهِينَةٌ	-0.04420055
-3.647694	رَوَاسِيَ	-0.04420055
-3.647694	رُجُومًا	-0.04420055
-3.647694	رُفِعَتْ	-0.04420055
-3.647694	رُوَيْدًا	-0.04420055
-3.647694	رِجَالٌ	-0.04420055
-3.647694	رِحْلَةَ	-0.04420055
-3.495546	رِزْقَهُ	-0.04420055
-3.647694	رِزْقِهِ	-0.04420055
-3.647694	رِسَالَاتِ	-0.04420055
-3.647694	زَجْرَةٌ	-0.04420055
-3.647694	زَعِيمٌ	-0.04420055
-3.647694	زَكَّاهَا	-0.04420055
-3.647694	زَمْهَرِيرًا	-0.04420055
-3.647694	زَنِيمٍ	-0.04420055
-3.647694	زَنْجَبِيلًا	-0.04420055
-3.647694	زَيَّنَّا	-0.04420055
-3.647694	زُرْتُمُ	-0.04420055
-3.647694	زُلْزِلَتِ	-0.04420054
-3.647694	زُلْفَةً	-0.04420055
-3.647694	زُوِّجَتْ	-0.04420055
-3.647694	زِدْ	-0.04420055
-3.647694	زِلْزَالَهَا	-0.04420055
-3.647694	سَأَلَ	-0.04420055
-3.647694	سَأَلَهُمْ	-0.04420055
-3.647694	سَأُرْهِقُهُ	-0.04420055
-3.647694	سَأُصْلِيهِ	-0.04420055
-3.647694	سَائِلٌ	-0.04420055
-3.647694	سَافِلِينَ	-0.04420055
-3.647694	سَاقٍ	-0.04420055
-3.647694	سَالِمُونَ	-0.04420055
-3.647694	سَاهُونَ	-0.04420055
-3.647694	سَبِيلًا	-0.04420055
-3.647694	سَبِيلِ	-0.04420055
-3.647694	سَبِيلِهِ	-0.04420055
-3.647694	سَبِّحِ	-0.04420055
-3.495546	سَبْحًا	-0.04420053
-3.647694	سَبْعًا	-0.04420055
-3.277206	سَبْعَ	-0.103558
-3.647694	سَبْعُونَ	-0.04420055
-3.647694	سَبْقًا	-0.04420055
-3.647694	سَجَى	-0.04420055
-3.647694	سَخَّرَهَا	-0.04420055
-3.647694	سَرَابًا	-0.04420055
-3.647694	سَعَى	-0.04420055
-3.647694	سَعِيرًا	-0.04420055
-3.647694	سَعْيَكُمْ	-0.04420055
-3.647694	سَعْيُكُمْ	-0.04420055
-3.647694	سَفَرَةٍ	-0.04420055
-3.647694	سَفِيهُنَا	-0.04420054
-3.495546	سَقَرَ	-0.1365851
-3.647694	سَقَرُ	-0.04420055
-3.647694	سَلَاسِلَ	-0.04420055
-3.647694	سَلَامٌ	-0.04420055
-3.647694	سَلَكَكُمْ	-0.04420055
-3.647694	سَلْسَبِيلًا	-0.04420055
-3.647694	سَلْهُمْ	-0.04420055
-3.647694	سَمَاوَاتٍ	-0.04420055
-3.495546	سَمِعُوا	-0.04420055
-3.495546	سَمِعْنَا	-0.04420055
-3.647694	سَمِيعًا	-0.04420055
-3.647694	سَمْكَهَا	-0.04420055
-3.647694	سَنَةٍ	-0.04420055
-3.647694	سَنَدْعُ	-0.04420055
-3.647694	سَنَسِمُهُ	-0.04420054
-3.647694	سَنَسْتَدْرِجُهُمْ	-0.04420055
-3.647694	سَنُقْرِئُكَ	-0.04420055
-3.647694	سَنُلْقِي	-0.04420055
-3.647694	سَوِيًّا	-0.04420054
-3.647694	سَوَّاهَا	-0.04420055
-3.647694	سَوْطَ	-0.04420055
-3.647694	سَوْفَ	-0.04420055
-3.647694	سَيَذَّكَّرُ	-0.04420055
-3.647694	سَيَصْلَى	-0.04420055
-3.647694	سَيَعْلَمُونَ	-0.04420055
-3.647694	سَيَكُونُ	-0.04420054
-3.647694	سُئِلَتْ	-0.04420055
-3.647694	سُبَاتًا	-0.04420055
-3.647694	سُبُلًا	-0.04420055
-3.647694	سُبْحَانَ	-0.04420055
-3.647694	سُجِّرَتْ	-0.04420055
-3.647694	سُدًى	-0.04420055
-3.647694	سُرُرٌ	-0.04420055
-3.647694	سُطِحَتْ	-0.04420055
-3.647694	سُعِّرَتْ	-0.04420055
-3.647694	سُلْطَانِيَهْ	-0.04420055
-3.647694	سُنْدُسٍ	-0.04420055
-3.647694	سُوَاعًا	-0.04420055
-3.647694	سُيِّرَتْ	-0.04420055
-3.647694	سِجِّيلٍ	-0.04420055
-3.647694	سِجِّينٌ	-0.04420055
-3.647694	سِجِّينٍ	-0.04420055
-3.647694	سِحْرٌ	-0.04420055
-3.495546	سِرَاجًا	-0.04420054
-3.647694	سِرَاعًا	-0.04420055
-3.647694	سِلْسِلَةٍ	-0.04420055
-3.647694	سِيئَتْ	-0.04420055
-3.647694	سِينِينَ	-0.04420055
-3.647694	شَأْنٌ	-0.04420055
-3.134029	شَاءَ	-0.04420055
-3.647694	شَاعِرٍ	-0.04420055
-3.647694	شَاكِرًا	-0.04420055
-3.647694	شَامِخَاتٍ	-0.04420055
-3.647694	شَانِئَكَ	-0.04420055
-3.647694	شَاهِدًا	-0.04420054
-3.647694	شَدِيدًا	-0.04420055
-3.495546	شَرَابًا	-0.04420054
-3.647694	شَرًّا	-0.04420055
-3.647694	شَرَّ	-0.04420055
-3.647694	شَرُّ	-0.04420055
-3.647694	شَرُّهُ	-0.04420055
-3.495546	شَرِّ	-0.04420055
-3.647694	شَطَطًا	-0.04420055
-3.647694	شَفَاعَةُ	-0.04420055
-3.647694	شَقَقْنَا	-0.04420055
-3.647694	شَقًّا	-0.04420055
-3.647694	شَمْسًا	-0.04420055
-3.647694	شَهِيدٌ	-0.04420055
-3.647694	شَهِيقًا	-0.04420055
-3.647694	شَهْرٍ	-0.04420055
-2.940434	شَيْءٍ	-0.04420055
-3.495546	شَيْئًا	-0.04420055
-3.647694	شَيْطَانٍ	-0.04420055
-3.647694	شُرَكَاءُ	-0.04420055
-3.647694	شُعَبٍ	-0.04420055
-3.647694	شُكُورًا	-0.04420055
-3.647694	شُهُودًا	-0.04420055
-3.647694	شُهُودٌ	-0.04420055
-3.647694	شِئْنَا	-0.04420055
-3.647694	شِدَادًا	-0.04420055
-3.647694	شِهَابًا	-0.04420055
-3.647694	شِيبًا	-0.04420055
-3.647694	صَاحِبَةً	-0.04420055
-3.647694	صَاحِبُكُمْ	-0.04420055
-3.495546	صَادِقِينَ	-0.1365851
-3.647694	صَارِمِينَ	-0.04420055
-3.647694	صَافَّاتٍ	-0.04420055
-3.647694	صَبَبْنَا	-0.04420055
-3.647694	صَبَرُوا	-0.04420055
-3.647694	صَبًّا	-0.04420055
-3.647694	صَبْرًا	-0.04420055
-3.647694	صَدَّقَ	-0.04420055
-3.647694	صَدْرَكَ	-0.04420055
-3.647694	صَرْصَرٍ	-0.04420055
-3.647694	صَرْعَى	-0.04420055
-3.647694	صَعَدًا	-0.04420055
-3.647694	صَعُودًا	-0.04420055
-3.277206	صَفًّا	-0.04420054
-3.495546	صَلَاتِهِمْ	-0.04420054
-3.495546	صَلَّى	-0.1365851
-3.647694	صَلُّوهُ	-0.04420055
-3.647694	صَوَابًا	-0.04420055
-3.647694	صُبْحًا	-0.04420055
-3.495546	صُحُفًا	-0.04420055
-3.647694	صُحُفٍ	-0.04420055
-3.647694	صُحُفِ	-0.04420055
-3.647694	صُدُورِ	-0.04420055
-3.647694	صُفْرٌ	-0.04420055
-3.647694	صُورَةٍ	-0.04420054
-3.647694	صِرَاطٍ	-0.04420055
-3.647694	صِرَاطَ	-0.04420055
-3.647694	ضَاحِكَةٌ	-0.04420055
-3.647694	ضَالًّا	-0.04420055
-3.647694	ضَبْحًا	-0.04420055
-3.647694	ضَرِيعٍ	-0.04420055
-3.647694	ضَرًّا	-0.04420055
-3.647694	ضَلَالًا	-0.04420055
-3.647694	ضَلَالٍ	-0.04420055
-3.647694	ضَلَّ	-0.04420054
-3.495546	ضُحَاهَا	-0.1365851
-3.647694	طَائِفٌ	-0.04420055
-3.647694	طَاغِينَ	-0.04420055
-3.647694	طَبَقًا	-0.04420054
-3.647694	طَبَقٍ	-0.04420055
-3.647694	طَحَاهَا	-0.04420055
-3.647694	طَرَائِقَ	-0.04420055
-3.495546	طَعَامٌ	-0.1365851
-3.647694	طَعَامِ	-0.04420055
-3.647694	طَعَامِهِ	-0.04420055
-3.647694	طَغَوْا	-0.04420055
-3.277206	طَغَى	-0.103558
-3.647694	طَهُورًا	-0.04420055
-3.495546	طَوِيلًا	-0.1365851
-3.647694	طَيْرًا	-0.04420055
-3.647694	طُمِسَتْ	-0.04420055
-3.647694	طُوًى	-0.04420055
-3.647694	طِبَاقًا	-0.04420055
-3.647694	ظَالِمِينَ	-0.04420055
-3.647694	ظَلِيلٍ	-0.04420055
-3.647694	ظَنَنَّا	-0.04420055
-3.647694	ظَنَنْتُ	-0.04420055
-3.647694	ظَنَنْتُمْ	-0.04420055
-3.647694	ظَنَّ	-0.04420055
-3.647694	ظَنُّوا	-0.04420055
-3.647694	ظَهْرَكَ	-0.04420055
-3.647694	ظَهْرِهِ	-0.04420055
-3.647694	ظِلَالٍ	-0.04420055
-3.647694	ظِلَالُهَا	-0.04420055
-3.647694	ظِلٍّ	-0.04420054
-3.647694	عَائِلًا	-0.04420055
-3.647694	عَابِدٌ	-0.04420054
-3.647694	عَابِدُونَ	-0.04420054
-3.647694	عَاتِيَةٍ	-0.04420055
-3.647694	عَادٌ	-0.04420055
-3.647694	عَالِمُ	-0.04420055
-3.647694	عَالِيَةٍ	-0.04420055
-3.647694	عَالِيَهُمْ	-0.04420055
-3.647694	عَامِلَةٌ	-0.04420055
-3.647694	عَبَدْتُمْ	-0.04420055
-3.495546	عَبَسَ	-0.04420055
-3.647694	عَبُوسًا	-0.04420055
-3.647694	عَبْدًا	-0.04420055
-3.647694	عَبْدُ	-0.04420055
-3.647694	عَجَبًا	-0.04420055
-3.495546	عَدَدًا	-0.1365851
-3.647694	عَدْنٍ	-0.04420055
-3.134029	عَذَابًا	-0.04420055
-3.647694	عَذَابٌ	-0.04420055
-3.495546	عَذَابٍ	-0.04420053
-3.495546	عَذَابَ	-0.04420055
-3.647694	عَذَابَهُ	-0.04420055
-3.277206	عَذَابُ	-0.103558
-3.647694	عَذَابِ	-0.04420055
-3.647694	عَرْشَ	-0.04420055
-3.647694	عَسَى	-0.04420055
-3.647694	عَسِيرٌ	-0.04420055
-3.647694	عَسْعَسَ	-0.04420055
-3.647694	عَشَرَ	-0.04420055
-3.647694	عَشِيَّةً	-0.04420055
-3.647694	عَشْرٍ	-0.04420055
-3.647694	عَصَوْنِي	-0.04420055
-3.647694	عَصْفًا	-0.04420055
-3.647694	عَطَاءً	-0.04420055
-3.495546	عَظِيمٍ	-0.1365851
-3.647694	عَلَقٍ	-0.04420055
-3.647694	عَلَقَةً	-0.04420055
-2.14698	عَلَى	-0.08707285
-3.277206	عَلَيْكَ	-0.04420055
-2.940434	عَلَيْكُمْ	-0.04420055
-3.277206	عَلَيْنَا	-0.04420055
-3.026532	عَلَيْهَا	-0.04420054
-3.026532	عَلَيْهِ	-0.04420055
-3.647694	عَلَيْهِمُ	-0.04420055
-2.586549	عَلَيْهِمْ	-0.04420055
-3.495546	عَلِمَ	-0.1365851
-3.647694	عَلِمَتْ	-0.04420055
-3.647694	عَلِيمًا	-0.04420055
-3.647694	عَلِيمٌ	-0.04420055
-3.495546	عَلَّمَ	-0.04420055
-3.647694	عَمَدٍ	-0.04420055
-3.647694	عَمَلًا	-0.04420055
-3.647694	عَمَّ	-0.04420055
-3.026532	عَنِ	-0.04420055
-3.647694	عَنِيدًا	-0.04420055
-3.495546	عَنِّي	-0.04420055
-2.940434	عَنْ	-0.04420055
-3.647694	عَنْكَ	-0.04420055
-3.647694	عَنْهَا	-0.04420055
-3.026532	عَنْهُ	-0.0788333
-3.647694	عَنْهُمْ	-0.04420055
-3.647694	عَيْنًا	-0.04420055
-3.647694	عَيْنٌ	-0.04420055
-3.647694	عَيْنٍ	-0.04420055
-3.647694	عَيْنَ	-0.04420055
-3.647694	عَيْنَيْنِ	-0.04420055
-3.647694	عُتُلٍّ	-0.04420055
-3.647694	عُتُوٍّ	-0.04420055
-3.647694	عُذْرًا	-0.04420055
-3.647694	عُرْفًا	-0.04420055
-3.647694	عُطِّلَتْ	-0.04420055
-3.647694	عُقْبَاهَا	-0.04420055
-3.647694	عِبَادَكَ	-0.04420055
-3.647694	عِبَادُ	-0.04420055
-3.647694	عِبَادِي	-0.04420055
-3.647694	عِدَّتَهُمْ	-0.04420055
-3.647694	عِزِينَ	-0.04420055
-3.647694	عِظَامًا	-0.04420055
-3.647694	عِظَامَهُ	-0.04420055
-3.647694	عِلِّيُّونَ	-0.04420055
-3.647694	عِلِّيِّينَ	-0.04420055
-3.647694	عِلْمَ	-0.04420055
-3.026532	عِنْدَ	-0.1164691
-3.647694	عِنْدَهُ	-0.04420055
-3.647694	عِنْدَهُمُ	-0.04420055
-3.647694	عِيشَةٍ	-0.04420055
-3.647694	غَاسِقٍ	-0.04420055
-3.647694	غَبَرَةٌ	-0.04420055
-3.647694	غَدَقًا	-0.04420055
-3.647694	غَرَّكَ	-0.04420055
-3.647694	غَرْقًا	-0.04420055
-3.647694	غَفُورٌ	-0.04420055
-3.647694	غَفَّارًا	-0.04420055
-3.647694	غَوْرًا	-0.04420055
-3.647694	غَيْبِهِ	-0.04420055
-3.647694	غَيْرَ	-0.04420055
-3.134029	غَيْرُ	-0.04420055
-3.647694	غَيْرِ	-0.04420055
-3.647694	غُثَاءً	-0.04420055
-3.647694	غُرُورٍ	-0.04420055
-3.647694	غُصَّةٍ	-0.04420055
-3.647694	غُلْبًا	-0.04420055
-3.647694	غِسْلِينٍ	-0.04420055
-3.647694	فَآمَنَّا	-0.04420055
-3.647694	فَآوَى	-0.04420055
-3.647694	فَأَثَرْنَ	-0.04420055
-3.647694	فَأَخَذَهُ	-0.04420054
-3.647694	فَأَخَذَهُمْ	-0.04420055
-3.647694	فَأَخَذْنَاهُ	-0.04420055
-3.647694	فَأَرَاهُ	-0.04420055
-3.647694	فَأَصْبَحَتْ	-0.04420055
-3.647694	فَأَغْنَى	-0.04420055
-3.647694	فَأَقْبَرَهُ	-0.04420055
-3.647694	فَأَقْبَلَ	-0.04420055
-3.647694	فَأَكْثَرُوا	-0.04420055
-3.647694	فَأَكْرَمَهُ	-0.04420055
-3.647694	فَأَلْهَمَهَا	-0.04420055
-3.647694	فَأَمَّا	-0.04420055
-3.647694	فَأَنْبَتْنَا	-0.04420055
-3.647694	فَأَنْتَ	-0.04420055
-3.647694	فَأَنْذَرْتُكُمْ	-0.04420055
-3.647694	فَأَنْذِرْ	-0.04420055
-3.647694	فَأَوْعَى	-0.04420055
-3.647694	فَأَوْلَى	-0.04420055
-3.647694	فَأَيْنَ	-0.04420055
-3.647694	فَأُدْخِلُوا	-0.04420055
-3.647694	فَأُمُّهُ	-0.04420055
-3.495546	فَأُهْلِكُوا	-0.04420055
-3.495546	فَأُولَئِكَ	-0.04420055
-3.495546	فَإِذَا	-0.04420055
-3.495546	فَإِنَّ	-0.04420055
-3.647694	فَإِنَّمَا	-0.04420055
-3.647694	فَإِنَّهُ	-0.04420055
-3.647694	فَإِنَّهُمْ	-0.04420055
-3.647694	فَإِنْ	-0.04420055
-3.647694	فَاتَّبِعْ	-0.04420055
-3.647694	فَاتَّخِذْهُ	-0.04420055
-3.647694	فَاجِرًا	-0.04420055
-3.647694	فَاجْتَبَاهُ	-0.04420055
-3.647694	فَادْخُلِي	-0.04420055
-3.647694	فَارْجِعِ	-0.04420055
-3.647694	فَارْغَبْ	-0.04420055
-3.647694	فَاسْجُدْ	-0.04420055
-3.647694	فَاسْلُكُوهُ	-0.04420055
-3.495546	فَاصْبِرْ	-0.04420054
-3.647694	فَاعْتَرَفُوا	-0.04420055
-3.647694	فَاقِرَةٌ	-0.04420055
-3.495546	فَاقْرَءُوا	-0.1365851
-3.647694	فَالسَّابِقَاتِ	-0.04420055
-3.647694	فَالْعَاصِفَاتِ	-0.04420055
-3.647694	فَالْفَارِقَاتِ	-0.04420055
-3.647694	فَالْمُدَبِّرَاتِ	-0.04420055
-3.647694	فَالْمُغِيرَاتِ	-0.04420055
-3.647694	فَالْمُلْقِيَاتِ	-0.04420055
-3.647694	فَالْمُورِيَاتِ	-0.04420055
-3.647694	فَالْيَوْمَ	-0.04420055
-3.647694	فَامْشُوا	-0.04420055
-3.647694	فَانْصَبْ	-0.04420055
-3.647694	فَانْطَلَقُوا	-0.04420055
-3.647694	فَاهْجُرْ	-0.04420055
-3.647694	فَبَشِّرْهُمْ	-0.04420055
-3.647694	فَبِأَيِّ	-0.04420055
-3.647694	فَتَأْتُونَ	-0.04420055
-3.647694	فَتَابَ	-0.04420054
-3.647694	فَتَخْشَى	-0.04420055
-3.647694	فَتَرَى	-0.04420055
-3.647694	فَتَرْضَى	-0.04420055
-3.647694	فَتَنَادَوْا	-0.04420055
-3.647694	فَتَنُوا	-0.04420055
-3.647694	فَتَنْفَعَهُ	-0.04420055
-3.647694	فَجَعَلَ	-0.04420054
-3.495546	فَجَعَلَهُ	-0.04420055
-3.647694	فَجَعَلَهُمْ	-0.04420055
-3.495546	فَجَعَلْنَاهُ	-0.04420055
-3.647694	فَحَدِّثْ	-0.04420055
-3.647694	فَحَشَرَ	-0.04420055
-3.647694	فَخَلَقَ	-0.04420055
-3.647694	فَدَمْدَمَ	-0.04420055
-3.647694	فَدُكَّتَا	-0.04420055
-3.647694	فَذَرْنِي	-0.04420055
-3.647694	فَذَرْهُمْ	-0.04420055
-3.647694	فَذَكِّرْ	-0.04420055
-3.647694	فَذَلِكَ	-0.04420055
-3.647694	فَذُوقُوا	-0.04420055
-3.647694	فَرَغْتَ	-0.04420055
-3.647694	فَرَّتْ	-0.04420055
-3.647694	فَرْقًا	-0.04420055
-3.647694	فَزَادُوهُمْ	-0.04420055
-3.647694	فَسَبِّحْ	-0.04420055
-3.495546	فَسَتَعْلَمُونَ	-0.04420055
-3.647694	فَسَتُبْصِرُ	-0.04420055
-3.647694	فَسَنُيَسِّرُهُ	-0.04420055
-3.647694	فَسَوَّاكَ	-0.04420055
-3.495546	فَسَوَّاهَا	-0.1365851
-3.495546	فَسَوَّى	-0.1365851
-3.647694	فَسَوْفَ	-0.04420055
-3.647694	فَسَيَعْلَمُونَ	-0.04420055
-3.647694	فَسُحْقًا	-0.04420055
-3.647694	فَصَبَّ	-0.04420055
-3.647694	فَصَلَّى	-0.04420055
-3.647694	فَصَلِّ	-0.04420055
-3.647694	فَصْلٌ	-0.04420055
-3.647694	فَضْلِ	-0.04420055
-3.647694	فَطَافَ	-0.04420055
-3.647694	فَطَهِّرْ	-0.04420055
-3.647694	فَعَدَلَكَ	-0.04420055
-3.647694	فَعَصَوْا	-0.04420055
-3.647694	فَعَصَى	-0.04420055
-3.647694	فَعَقَرُوهَا	-0.04420055
-3.647694	فَعَلَ	-0.04420055
-3.647694	فَعَّالٌ	-0.04420055
-3.647694	فَغُلُّوهُ	-0.04420055
-3.647694	فَقَالَ	-0.04420055
-3.647694	فَقَالُوا	-0.04420055
-3.647694	فَقَدَرَ	-0.04420055
-3.647694	فَقَدَرْنَا	-0.04420055
-3.647694	فَقَدَّرَهُ	-0.04420055
-3.647694	فَقُتِلَ	-0.04420055
-3.647694	فَقُلْ	-0.04420055
-3.647694	فَقُلْتُ	-0.04420055
-3.495546	فَكَانَتْ	-0.04420055
-3.647694	فَكَانُوا	-0.04420055
-3.647694	فَكَبِّرْ	-0.04420055
-3.647694	فَكَذَّبَ	-0.04420055
-3.647694	فَكَذَّبُوهُ	-0.04420055
-3.647694	فَكَذَّبْنَا	-0.04420055
-3.495546	فَكَيْفَ	-0.04420055
-3.647694	فَكِهِينَ	-0.04420055
-3.647694	فَكِيدُونِ	-0.04420055
-3.647694	فَكَّرَ	-0.04420055
-3.647694	فَكُّ	-0.04420055
-2.807001	فَلَا	-0.04420055
-3.647694	فَلَمَّا	-0.04420055
-3.495546	فَلَمْ	-0.04420055
-3.647694	فَلَنْ	-0.04420055
-3.495546	فَلَهُمْ	-0.04420055
-3.647694	فَلَيْسَ	-0.04420055
-3.647694	فَلْيَأْتُوا	-0.04420055
-3.647694	فَلْيَتَنَافَسِ	-0.04420055
-3.647694	فَلْيَدْعُ	-0.04420055
-3.647694	فَلْيَعْبُدُوا	-0.04420055
-3.647694	فَلْيَنْظُرِ	-0.04420055
-3.647694	فَمَا	-0.04420055
-3.647694	فَمَالِ	-0.04420055
-3.647694	فَمَنِ	-0.04420055
-2.807001	فَمَنْ	-0.1051583
-3.647694	فَمَهِّلِ	-0.04420055
-3.647694	فَمُلَاقِيهِ	-0.04420055
-3.647694	فَنَادَى	-0.04420055
-3.647694	فَنِعْمَ	-0.04420055
-3.495546	فَهَدَى	-0.1365851
-3.647694	فَهَلْ	-0.04420055
-3.495546	فَهُمْ	-0.04420055
-3.647694	فَهُوَ	-0.04420055
-3.647694	فَهِيَ	-0.04420055
-3.647694	فَوَجَدْنَاهَا	-0.04420055
-3.647694	فَوَسَطْنَ	-0.04420055
-3.647694	فَوَقَاهُمُ	-0.04420054
-3.647694	فَوَيْلٌ	-0.04420055
-3.647694	فَوْجٌ	-0.04420055
-3.647694	فَوْقَكُمْ	-0.04420055
-3.495546	فَوْقَهُمْ	-0.04420055
-3.647694	فَيَعْتَذِرُونَ	-0.04420055
-3.134029	فَيَقُولُ	-0.08794091
-3.647694	فَيَوْمَئِذٍ	-0.04420055
-3.647694	فَيُدْهِنُونَ	-0.04420055
-3.647694	فَيُعَذِّبُهُ	-0.04420054
-3.647694	فُجُورَهَا	-0.04420055
-3.647694	فُجِّرَتْ	-0.04420055
-3.647694	فُرَاتًا	-0.04420055
-3.647694	فُرِجَتْ	-0.04420055
-3.647694	فُطُورٍ	-0.04420055
-3.647694	فِتْنَةً	-0.04420055
-3.647694	فِجَاجًا	-0.04420055
-3.647694	فِرَارًا	-0.04420055
-3.495546	فِرْعَوْنَ	-0.04420055
-3.495546	فِرْعَوْنُ	-0.04420055
-3.647694	فِضَّةٍ	-0.04420054
-1.990425	فِي	-0.08652053
-3.647694	فِيمَ	-0.04420055
-2.394178	فِيهَا	-0.04420055
-3.134029	فِيهِ	-0.04420055
-3.647694	فِيهِنَّ	-0.04420055
-3.647694	قَائِمُونَ	-0.04420055
-3.495546	قَادِرِينَ	-0.04420055
-3.495546	قَالَ	-0.04420055
-3.277206	قَالُوا	-0.04420055
-3.647694	قَامَ	-0.04420055
-3.647694	قَبْلَهُ	-0.04420055
-3.647694	قَبْلِ	-0.04420055
-3.647694	قَبْلِهِمْ	-0.04420055
-3.647694	قَتَرَةٌ	-0.04420055
-3.647694	قَدَرٍ	-0.04420055
-3.647694	قَدِيرٌ	-0.04420055
-3.495546	قَدَّرَ	-0.04420053
-3.647694	قَدَّرُوهَا	-0.04420055
-3.647694	قَدَّمَ	-0.04420055
-3.647694	قَدَّمَتْ	-0.04420055
-3.647694	قَدَّمْتُ	-0.04420055
-3.277206	قَدْ	-0.04420054
-3.647694	قَدْحًا	-0.04420055
-3.647694	قَرَأْنَاهُ	-0.04420055
-3.647694	قَرَارٍ	-0.04420055
-3.495546	قَرِيبًا	-0.04420055
-3.647694	قَرْضًا	-0.04420055
-3.647694	قَسَمٌ	-0.04420055
-3.647694	قَسْوَرَةٍ	-0.04420055
-3.647694	قَلَى	-0.04420055
-2.868613	قَلِيلًا	-0.2225178
-3.647694	قَمْطَرِيرًا	-0.04420055
-3.647694	قَوَارِيرَ	-0.04420055
-3.647694	قَوَارِيرَا	-0.04420055
-3.647694	قَوْلًا	-0.04420055
-3.647694	قَوْلَكُمْ	-0.04420055
-3.647694	قَوْلُ	-0.04420055
-3.647694	قَوْمَكَ	-0.04420055
-3.647694	قَوْمِ	-0.04420055
-3.647694	قَوْمِهِ	-0.04420055
-3.647694	قَوْمِي	-0.04420055
-3.647694	قَيِّمَةٌ	-0.04420055
-3.495546	قُتِلَ	-0.04420055
-3.647694	قُتِلَتْ	-0.04420055
-3.647694	قُرَيْشٍ	-0.04420055
-3.647694	قُرِئَ	-0.04420055
-3.647694	قُرْآنًا	-0.04420055
-3.647694	قُرْآنٌ	-0.04420055
-3.647694	قُرْآنَهُ	-0.04420055
-3.495546	قُطُوفُهَا	-0.04420055
-3.647694	قُعُودٌ	-0.04420055
-3.647694	قُلُوبٌ	-0.04420055
-3.495546	قُلُوبِهِمْ	-0.04420055
-3.647694	قُلْ	-0.04420055
-3.647694	قُمِ	-0.04420055
-3.647694	قُمْ	-0.04420055
-3.495546	قُوَّةٍ	-0.04420055
-3.647694	قِبَلَكَ	-0.04420055
-3.647694	قِدَدًا	-0.04420055
-3.647694	قِيلًا	-0.04420055
-3.647694	قِيلَ	-0.04420055
-3.647694	كَأَنَّهُ	-0.04420055
-3.277206	كَأَنَّهُمْ	-0.04420055
-3.647694	كَأْسًا	-0.04420055
-3.647694	كَأْسٍ	-0.04420055
-3.647694	كَاتِبِينَ	-0.04420055
-3.647694	كَادُوا	-0.04420055
-3.647694	كَادِحٌ	-0.04420055
-3.647694	كَاذِبَةٍ	-0.04420055
-3.647694	كَافُورًا	-0.04420055
-3.647694	كَالصَّرِيمِ	-0.04420055
-3.647694	كَالُوهُمْ	-0.04420055
-3.647694	كَالْعِهْنِ	-0.04420054
-3.647694	كَالْفَرَاشِ	-0.04420055
-3.647694	كَالْقَصْرِ	-0.04420055
-3.647694	كَالْمُجْرِمِينَ	-0.04420055
-3.647694	كَالْمُهْلِ	-0.04420055
-2.493534	كَانَ	-0.05960126
-3.647694	كَانَتِ	-0.04420055
-3.495546	كَانَتْ	-0.04420055
-2.868613	كَانُوا	-0.04420055
-3.647694	كَاهِنٍ	-0.04420055
-3.647694	كَبَدٍ	-0.04420055
-3.647694	كَبِيرًا	-0.04420055
-3.647694	كَبِيرٌ	-0.04420055
-3.647694	كَبِيرٍ	-0.04420055
-3.647694	كَثِيبًا	-0.04420055
-3.647694	كَثِيرًا	-0.04420055
-3.647694	كَدْحًا	-0.04420055
-3.277206	كَذَلِكَ	-0.04420055
-3.647694	كَذِبًا	-0.04420055
-3.134029	كَذَّبَ	-0.1957951
-3.647694	كَذَّبَتْ	-0.04420055
-3.647694	كَرِيمٍ	-0.04420055
-3.647694	كَرَّةٌ	-0.04420055
-3.647694	كَرَّتَيْنِ	-0.04420055
-3.647694	كَسَبَ	-0.04420055
-3.647694	كَسَبَتْ	-0.04420055
-3.647694	كَصَاحِبِ	-0.04420055
-3.647694	كَعَصْفٍ	-0.04420055
-3.134029	كَفَرُوا	-0.04420055
-3.647694	كَفَرْتُمْ	-0.04420055
-3.495546	كَفُورًا	-0.1365851
-3.647694	كَفَّارًا	-0.04420055
-3.495546	كَلَّا	-0.0642368
-3.277206	كَمَا	-0.04420055
-3.495546	كَيْدًا	-0.1365851
-3.647694	كَيْدٌ	-0.04420055
-3.647694	كَيْدَهُمْ	-0.04420055
-3.647694	كَيْدِي	-0.04420055
-2.705074	كَيْفَ	-0.0611718
-3.647694	كُبَّارًا	-0.04420055
-3.647694	كُتُبٌ	-0.04420055
-3.647694	كُشِطَتْ	-0.04420055
-3.647694	كُفُوًا	-0.04420055
-3.647694	كُلُوا	-0.04420055
-3.495546	كُلَّ	-0.04420055
-3.495546	كُلَّمَا	-0.04420055
-3.026532	كُلُّ	-0.116469
-3.495546	كُلِّ	-0.04420055
-2.940434	كُنَّا	-0.04420055
-3.647694	كُنْتُ	-0.04420055
-3.026532	كُنْتُمْ	-0.07286597
-3.647694	كُوِّرَتْ	-0.04420055
-3.647694	كِتَابًا	-0.04420055
-3.495546	كِتَابٌ	-0.04420055
-3.647694	كِتَابَ	-0.04420055
-3.647694	كِتَابَهُ	-0.04420055
-3.495546	كِتَابِيَهْ	-0.1365851
-3.495546	كِذَّابًا	-0.1365851
-3.647694	كِرَامًا	-0.04420055
-3.647694	كِرَامٍ	-0.04420055
-3.647694	كِفَاتًا	-0.04420055
-3.647694	لَأَجْرًا	-0.04420055
-3.647694	لَأَخَذْنَا	-0.04420054
-3.647694	لَأَسْقَيْنَاهُمْ	-0.04420055
-3.647694	لَإِحْدَى	-0.04420055
-3.647694	لَئِنْ	-0.04420055
-2.261323	لَا	-0.04420054
-3.647694	لَابِثِينَ	-0.04420055
-3.647694	لَاغِيَةً	-0.04420055
-3.647694	لَبِالْمِرْصَادِ	-0.04420055
-3.647694	لَتَذْكِرَةٌ	-0.04420055
-3.647694	لَتَرَوُنَّ	-0.04420055
-3.647694	لَتَرَوُنَّهَا	-0.04420055
-3.647694	لَتَرْكَبُنَّ	-0.04420055
-3.647694	لَتُسْأَلُنَّ	-0.04420055
-3.647694	لَجُّوا	-0.04420055
-3.647694	لَحَافِظِينَ	-0.04420055
-3.647694	لَحَسْرَةٌ	-0.04420054
-3.647694	لَحَقُّ	-0.04420055
-3.647694	لَخَبِيرٌ	-0.04420055
-3.647694	لَدَيْنَا	-0.04420055
-3.647694	لَدَيْهِمْ	-0.04420055
-3.647694	لَسْتَ	-0.04420055
-3.647694	لَشَتَّى	-0.04420055
-3.495546	لَشَدِيدٌ	-0.1365851
-3.647694	لَشَهِيدٌ	-0.04420055
-3.647694	لَصَالُو	-0.04420055
-3.495546	لَضَالُّونَ	-0.1365851
-3.647694	لَظَى	-0.04420055
-3.647694	لَعَلَى	-0.04420055
-3.647694	لَعَلَّهُ	-0.04420055
-3.647694	لَعِبْرَةً	-0.04420055
-3.647694	لَغْوًا	-0.04420055
-2.940434	لَفِي	-0.04420055
-3.647694	لَقَادِرٌ	-0.04420055
-3.647694	لَقَادِرُونَ	-0.04420055
-3.647694	لَقَدْ	-0.04420055
-3.647694	لَقَطَعْنَا	-0.04420054
-3.647694	لَقَوْلٌ	-0.04420055
-3.647694	لَقَوْلُ	-0.04420055
-2.868613	لَكَ	-0.04420055
-3.647694	لَكَنُودٌ	-0.04420055
-3.495546	لَكُمُ	-0.04420055
-2.586549	لَكُمْ	-0.04420055
-3.647694	لَلْآخِرَةَ	-0.04420055
-3.647694	لَلْهُدَى	-0.04420055
-3.495546	لَمَا	-0.04420055
-3.647694	لَمَجْنُونٌ	-0.04420055
-3.647694	لَمَحْجُوبُونَ	-0.04420055
-3.647694	لَمَرْدُودُونَ	-0.04420055
-3.647694	لَمَسْنَا	-0.04420055
-3.647694	لَمًّا	-0.04420055
-2.940434	لَمَّا	-0.04420055
-2.66187	لَمْ	-0.04420055
-3.647694	لَنَا	-0.04420055
-3.647694	لَنَسْفَعًا	-0.04420055
-3.647694	لَنَعْلَمُ	-0.04420055
-3.647694	لَنُبِذَ	-0.04420055
-3.495546	لَنْ	-0.04420055
-3.277206	لَهَا	-0.103558
-3.495546	لَهَبٍ	-0.04420054
-2.493534	لَهُ	-0.04420054
-3.647694	لَهُمُ	-0.04420055
-2.522381	لَهُمْ	-0.05410313
-3.647694	لَوَاقِعٌ	-0.04420055
-3.647694	لَوِ	-0.04420055
-3.647694	لَوَّاحَةٌ	-0.04420055
-2.940434	لَوْ	-0.04420055
-3.647694	لَوْحٍ	-0.04420055
-3.495546	لَوْلَا	-0.04420055
-3.647694	لَيَالٍ	-0.04420055
-3.647694	لَيَصْرِمُنَّهَا	-0.04420055
-3.647694	لَيَطْغَى	-0.04420055
-3.647694	لَيُزْلِقُونَكَ	-0.04420055
-3.647694	لَيُنْبَذَنَّ	-0.04420055
-3.647694	لَيْتَنِي	-0.04420054
-3.647694	لَيْتَهَا	-0.04420055
-3.495546	لَيْسَ	-0.04420055
-3.495546	لَيْلًا	-0.04420055
-3.495546	لَيْلَةُ	-0.1365851
-3.647694	لَيْلَةِ	-0.04420055
-3.647694	لَيْلَهَا	-0.04420055
-3.647694	لُؤْلُؤًا	-0.04420055
-3.647694	لُبَدًا	-0.04420055
-3.647694	لُمَزَةٍ	-0.04420055
-3.647694	لِآيَاتِنَا	-0.04420055
-3.647694	لِأَحَدٍ	-0.04420055
-3.647694	لِأَصْحَابِ	-0.04420055
-3.647694	لِأَمَانَاتِهِمْ	-0.04420055
-3.647694	لِأَنْفُسِكُمْ	-0.04420055
-3.647694	لِأَيِّ	-0.04420055
-3.647694	لِإِيلَافِ	-0.04420055
-3.647694	لِبَاسًا	-0.04420055
-3.647694	لِبَدًا	-0.04420055
-3.647694	لِتَسْلُكُوا	-0.04420055
-3.647694	لِتَعْجَلَ	-0.04420055
-3.647694	لِتَغْفِرَ	-0.04420054
-3.647694	لِجَهَنَّمَ	-0.04420055
-3.647694	لِحَيَاتِي	-0.04420055
-3.647694	لِحُبِّ	-0.04420055
-3.647694	لِحُكْمِ	-0.04420055
-3.647694	لِذِي	-0.04420055
-3.647694	لِرَبِّ	-0.04420055
-3.647694	لِرَبِّكَ	-0.04420055
-3.647694	لِرَبِّهَا	-0.04420055
-3.647694	لِرَبِّهِ	-0.04420055
-3.647694	لِسَانَكَ	-0.04420055
-3.647694	لِسَعْيِهَا	-0.04420055
-3.647694	لِفُرُوجِهِمْ	-0.04420055
-3.495546	لِكُلِّ	-0.04420055
-3.647694	لِلسَّائِلِ	-0.04420055
-3.647694	لِلسَّمْعِ	-0.04420055
-3.647694	لِلشَّوَى	-0.04420055
-3.647694	لِلشَّيَاطِينِ	-0.04420055
-3.647694	لِلطَّاغِينَ	-0.04420055
-3.647694	لِلَّذِينَ	-0.04420055
-3.134029	لِلَّهِ	-0.04420055
-3.277206	لِلْبَشَرِ	-0.2609153
-3.647694	لِلْخَيْرِ	-0.04420055
-3.647694	لِلْعَالَمِينَ	-0.04420055
-3.647694	لِلْعُسْرَى	-0.04420055
-3.495546	لِلْكَافِرِينَ	-0.04420055
-3.495546	لِلْمُتَّقِينَ	-0.04420055
-3.647694	لِلْمُصَلِّينَ	-0.04420055
-3.647694	لِلْمُطَفِّفِينَ	-0.04420055
-3.647694	لِلْمُكَذِّبِينَ	-0.04420055
-3.495546	لِلْيُسْرَى	-0.1365851
-3.647694	لِمَا	-0.04420055
-3.134029	لِمَنْ	-0.04420055
-3.647694	لِنَجْعَلَهَا	-0.04420055
-3.647694	لِنَفْتِنَهُمْ	-0.04420055
-3.647694	لِنَفْسٍ	-0.04420055
-3.647694	لِنُخْرِجَ	-0.04420055
-3.647694	لِوَجْهِ	-0.04420055
-3.647694	لِي	-0.04420055
-3.647694	لِيَبْلُوَكُمْ	-0.04420055
-3.647694	لِيَسْتَيْقِنَ	-0.04420055
-3.647694	لِيَعْبُدُوا	-0.04420055
-3.647694	لِيَعْلَمَ	-0.04420055
-3.647694	لِيَفْجُرَ	-0.04420055
-3.647694	لِيَوْمٍ	-0.04420055
-3.647694	لِيَوْمِ	-0.04420055
-3.647694	لِيُرَوْا	-0.04420055
-3.495546	مَآبًا	-0.1365851
-3.647694	مَأْكُولٍ	-0.04420055
-3.647694	مَأْمُونٍ	-0.04420055
-2.14698	مَا	-0.061769
-3.277206	مَاءً	-0.04420054
-3.647694	مَاءٍ	-0.04420055
-3.647694	مَاءَهَا	-0.04420055
-3.647694	مَاؤُكُمْ	-0.04420055
-3.647694	مَاذَا	-0.04420055
-3.277206	مَالًا	-0.04420054
-3.647694	مَالٍ	-0.04420055
-3.495546	مَالَهُ	-0.04420055
-3.495546	مَالُهُ	-0.04420055
-3.647694	مَالِكِ	-0.04420055
-3.647694	مَالِيَهْ	-0.04420055
-3.647694	مَبْثُوثَةٌ	-0.04420055
-3.647694	مَبْعُوثُونَ	-0.04420055
-3.647694	مَتَاعًا	-0.04420055
-3.647694	مَتَى	-0.04420055
-3.647694	مَتِينٌ	-0.04420055
-3.647694	مَتْرَبَةٍ	-0.04420055
-3.647694	مَثَلًا	-0.04420055
-3.647694	مَجِيدٌ	-0.04420055
-3.647694	مَحْرُومُونَ	-0.04420055
-3.647694	مَحْفُوظٍ	-0.04420055
-3.647694	مَخْتُومٍ	-0.04420055
-3.647694	مَذْكُورًا	-0.04420055
-3.647694	مَذْمُومٌ	-0.04420055
-3.647694	مَرَضٌ	-0.04420055
-3.647694	مَرُّوا	-0.04420055
-3.647694	مَرْضَى	-0.04420055
-3.647694	مَرْضِيَّةً	-0.04420055
-3.647694	مَرْفُوعَةٌ	-0.04420055
-3.647694	مَرْفُوعَةٍ	-0.04420055
-3.647694	مَرْقُومٌ	-0.04420055
-3.647694	مَسَدٍ	-0.04420055
-3.495546	مَسَّهُ	-0.04420055
-3.647694	مَسْرُورًا	-0.04420055
-3.647694	مَسْغَبَةٍ	-0.04420055
-3.647694	مَشَّاءٍ	-0.04420055
-3.647694	مَشْكُورًا	-0.04420055
-3.647694	مَصْفُوفَةٌ	-0.04420055
-3.647694	مَطْلَعِ	-0.04420055
-3.134029	مَعَ	-0.08794092
-3.647694	مَعَاذِيرَهُ	-0.04420055
-3.647694	مَعَاشًا	-0.04420055
-3.647694	مَعَكَ	-0.04420055
-3.647694	مَعِينٍ	-0.04420055
-3.647694	مَعِيَ	-0.04420055
-3.647694	مَعْلُومٌ	-0.04420055
-3.647694	مَعْلُومٍ	-0.04420055
-3.647694	مَغْرَمٍ	-0.04420055
-3.647694	مَغْفِرَةٌ	-0.04420055
-3.647694	مَفَازًا	-0.04420055
-3.647694	مَفْعُولًا	-0.04420055
-3.647694	مَقَاعِدَ	-0.04420055
-3.647694	مَقَامَ	-0.04420054
-3.647694	مَقْرَبَةٍ	-0.04420055
-3.495546	مَكِينٍ	-0.1365851
-3.647694	مَكْرًا	-0.04420055
-3.647694	مَكْظُومٌ	-0.04420055
-3.647694	مَلَائِكَةً	-0.04420054
-3.647694	مَلَكَتْ	-0.04420055
-3.647694	مَلُومِينَ	-0.04420055
-3.647694	مَلِكِ	-0.04420055
-3.647694	مَمْدُودًا	-0.04420055
-3.495546	مَمْنُونٍ	-0.1365851
-3.647694	مَنَاكِبِهَا	-0.04420055
-3.647694	مَنُوعًا	-0.04420055
-3.495546	مَنِ	-0.04420055
-3.647694	مَنِيٍّ	-0.04420055
-3.647694	مَنَّاعٍ	-0.04420055
-2.441021	مَنْ	-0.07667123
-3.647694	مَنْثُورًا	-0.04420055
-3.647694	مَهِيلًا	-0.04420055
-3.495546	مَهِينٍ	-0.1365851
-3.495546	مَوَازِينُهُ	-0.1365851
-3.647694	مَوْضُوعَةٌ	-0.04420055
-3.495546	مُؤْصَدَةٌ	-0.1365851
-3.647694	مُؤْمِنًا	-0.04420055
-3.647694	مُبِينٌ	-0.04420055
-3.647694	مُبِينٍ	-0.04420055
-3.647694	مُتَّكِئِينَ	-0.04420055
-3.647694	مُثْقَلُونَ	-0.04420055
-3.647694	مُجْرِمُونَ	-0.04420055
-3.647694	مُحِيطٌ	-0.04420055
-3.647694	مُخَلَّدُونَ	-0.04420055
-3.647694	مُخْتَلِفُونَ	-0.04420055
-3.647694	مُخْلِصِينَ	-0.04420055
-3.647694	مُدَّتْ	-0.04420055
-3.647694	مُذَكِّرٌ	-0.04420055
-3.647694	مُرْسَاهَا	-0.04420055
-3.647694	مُسَمًّى	-0.04420055
-3.647694	مُسْتَبْشِرَةٌ	-0.04420055
-3.647694	مُسْتَطِيرًا	-0.04420055
-3.647694	مُسْتَقِيمٍ	-0.04420055
-3.647694	مُسْتَنْفِرَةٌ	-0.04420055
-3.647694	مُسْفِرَةٌ	-0.04420055
-3.647694	مُشْفِقُونَ	-0.04420055
-3.495546	مُصْبِحِينَ	-0.1365851
-3.647694	مُطَاعٍ	-0.04420055
-3.647694	مُطَهَّرَةً	-0.04420055
-3.647694	مُطَهَّرَةٍ	-0.04420055
-3.495546	مُعْتَدٍ	-0.1365851
-3.647694	مُعْرِضِينَ	-0.04420055
-3.647694	مُكَذِّبِينَ	-0.04420055
-3.647694	مُكَرَّمَةٍ	-0.04420055
-3.647694	مُكِبًّا	-0.04420054
-3.647694	مُكْرَمُونَ	-0.04420055
-3.647694	مُلَاقٍ	-0.04420055
-3.647694	مُلِئَتْ	-0.04420055
-3.647694	مُلْتَحَدًا	-0.04420055
-3.647694	مُلْكُ	-0.04420055
-3.647694	مُمَدَّدَةٍ	-0.04420055
-3.647694	مُنَشَّرَةً	-0.04420055
-3.647694	مُنْتَهَاهَا	-0.04420055
-3.647694	مُنْذِرُ	-0.04420055
-3.647694	مُنْفَطِرٌ	-0.04420055
-3.647694	مُنْفَكِّينَ	-0.04420055
-3.647694	مُهْطِعِينَ	-0.04420055
-3.647694	مُوسَى	-0.04420055
-3.647694	مِثْقَالَ	-0.04420055
-3.647694	مِثْلُهَا	-0.04420055
-3.647694	مِدْرَارًا	-0.04420055
-3.647694	مِرْصَادًا	-0.04420055
-3.647694	مِزَاجُهَا	-0.04420055
-3.647694	مِسْكٌ	-0.04420055
-3.495546	مِسْكِينًا	-0.04420055
-3.647694	مِسْكِينٌ	-0.04420055
-3.647694	مِقْدَارُهُ	-0.04420055
-3.647694	مِمَّ	-0.04420055
-3.277206	مِمَّا	-0.04420054
-2.33221	مِنَ	-0.1177816
-3.647694	مِنَّا	-0.04420055
-1.948683	مِنْ	-0.07259988
-2.940434	مِنْكُمْ	-0.04420055
-3.134029	مِنْهَا	-0.04420055
-2.940434	مِنْهُ	-0.04420055
-3.134029	مِنْهُمْ	-0.04420055
-3.647694	مِهَادًا	-0.04420055
-3.647694	مِيقَاتًا	-0.04420055
-3.647694	ن	-0.04420055
-3.647694	نَائِمُونَ	-0.04420055
-3.647694	نَادَاهُ	-0.04420055
-3.647694	نَادَى	-0.04420055
-3.647694	نَادِيَهُ	-0.04420055
-3.134029	نَارًا	-0.04420055
-3.495546	نَارٌ	-0.04420055
-3.647694	نَارَ	-0.04420055
-3.647694	نَارُ	-0.04420055
-3.647694	نَارِ	-0.04420055
-3.647694	نَاشِئَةَ	-0.04420055
-3.647694	نَاصِبَةٌ	-0.04420055
-3.647694	نَاصِرًا	-0.04420055
-3.647694	نَاصِرٍ	-0.04420055
-3.647694	نَاصِيَةٍ	-0.04420055
-3.647694	نَاضِرَةٌ	-0.04420055
-3.647694	نَاظِرَةٌ	-0.04420055
-3.647694	نَاعِمَةٌ	-0.04420055
-3.647694	نَاقَةَ	-0.04420055
-3.647694	نَبَاتًا	-0.04420055
-3.647694	نَبْتَلِيهِ	-0.04420055
-3.647694	نَجْزِي	-0.04420055
-3.647694	نَجْعَلِ	-0.04420055
-3.647694	نَجْعَلْ	-0.04420055
-3.647694	نَجْمَعَ	-0.04420055
-3.134029	نَحْنُ	-0.04420055
-3.647694	نَخَافُ	-0.04420055
-3.647694	نَخُوضُ	-0.04420055
-3.647694	نَخِرَةً	-0.04420055
-3.647694	نَخْلٍ	-0.04420055
-3.647694	نَخْلُقْكُمْ	-0.04420055
-3.647694	نَدْرِي	-0.04420055
-3.647694	نَذِيرًا	-0.04420055
-3.134029	نَذِيرٌ	-0.08794092
-3.647694	نَذِيرِ	-0.04420055
-3.647694	نَزِيدَكُمْ	-0.04420055
-3.647694	نَزَّاعَةً	-0.04420055
-3.647694	نَزَّلَ	-0.04420054
-3.647694	نَزَّلْنَا	-0.04420055
-3.647694	نَسْتَعِينُ	-0.04420055
-3.647694	نَسْمَعُ	-0.04420055
-3.647694	نَشْرًا	-0.04420055
-3.647694	نَشْرَحْ	-0.04420055
-3.647694	نَشْطًا	-0.04420055
-3.647694	نَصْرُ	-0.04420055
-3.647694	نَضْرَةً	-0.04420055
-3.647694	نَضْرَةَ	-0.04420055
-3.647694	نَظَرَ	-0.04420055
-3.647694	نَعِيمًا	-0.04420055
-3.495546	نَعِيمٍ	-0.1365851
-3.647694	نَعْبُدُ	-0.04420055
-3.647694	نَعْقِلُ	-0.04420054
-3.647694	نَفَرٌ	-0.04420055
-3.647694	نَفَعَتِ	-0.04420055
-3.647694	نَفْخَةٌ	-0.04420055
-3.495546	نَفْسٌ	-0.04420055
-3.647694	نَفْسٍ	-0.04420055
-3.647694	نَفْسِهِ	-0.04420055
-3.647694	نَفْعَلُ	-0.04420055
-3.647694	نَقَمُوا	-0.04420055
-3.647694	نَقْعًا	-0.04420055
-3.647694	نَقْعُدُ	-0.04420055
-3.647694	نَكَالَ	-0.04420055
-3.495546	نَكُ	-0.04420055
-3.647694	نَكِيرِ	-0.04420055
-3.647694	نَوْمَكُمْ	-0.04420055
-3.647694	نُبَدِّلَ	-0.04420055
-3.647694	نُتْبِعُهُمُ	-0.04420055
-3.647694	نُذْرًا	-0.04420055
-3.647694	نُرِيدُ	-0.04420054
-3.647694	نُسَوِّيَ	-0.04420055
-3.647694	نُسِفَتْ	-0.04420055
-3.647694	نُشِرَتْ	-0.04420055
-3.647694	نُشْرِكَ	-0.04420055
-3.647694	نُصُبٍ	-0.04420055
-3.647694	نُصِبَتْ	-0.04420055
-3.647694	نُطْعِمُ	-0.04420055
-3.647694	نُطْعِمُكُمْ	-0.04420055
-3.647694	نُطْفَةً	-0.04420055
-3.647694	نُطْفَةٍ	-0.04420055
-3.647694	نُعْجِزَ	-0.04420055
-3.647694	نُعْجِزَهُ	-0.04420055
-3.647694	نُفِخَ	-0.04420055
-3.647694	نُقِرَ	-0.04420055
-3.647694	نُكَذِّبُ	-0.04420055
-3.647694	نُهْلِكِ	-0.04420055
-3.647694	نُوحًا	-0.04420055
-3.495546	نُوحٌ	-0.1365851
-3.647694	نُورًا	-0.04420055
-3.647694	نِصْفَهُ	-0.04420055
-3.647694	نِعْمَةٌ	-0.04420055
-3.647694	نِعْمَةٍ	-0.04420055
-3.647694	هَؤُلَاءِ	-0.04420055
-3.647694	هَاؤُمُ	-0.04420055
-3.647694	هَاهُنَا	-0.04420055
-3.647694	هَاوِيَةٌ	-0.04420055
-3.647694	هَجْرًا	-0.04420055
-3.647694	هَدَيْنَاهُ	-0.04420055
-2.807001	هَذَا	-0.1051583
-3.647694	هَذِهِ	-0.04420055
-3.647694	هَرَبًا	-0.04420055
-3.647694	هَلَكَ	-0.04420055
-3.647694	هَلُوعًا	-0.04420055
-3.277206	هَلْ	-0.04420055
-3.647694	هَمَّازٍ	-0.04420055
-3.647694	هَنِيئًا	-0.04420055
-3.647694	هُمَزَةٍ	-0.04420055
-3.495546	هُمُ	-0.04420055
-2.807001	هُمْ	-0.05544072
-2.586549	هُوَ	-0.06208365
-2.868613	هِيَ	-0.06865324
-3.647694	هِيَهْ	-0.04420055
-3.647694	وَآتُوا	-0.04420055
-3.647694	وَآثَرَ	-0.04420055
-3.495546	وَآخَرُونَ	-0.04420055
-3.647694	وَآمَنَهُمْ	-0.04420055
-3.647694	وَأَبِيهِ	-0.04420055
-3.647694	وَأَبًّا	-0.04420055
-3.647694	وَأَبْقَى	-0.04420055
-3.647694	وَأَجْرٌ	-0.04420055
-3.647694	وَأَحَاطَ	-0.04420055
-3.647694	وَأَحْصَى	-0.04420055
-3.647694	وَأَخِيهِ	-0.04420055
-3.647694	وَأَخَّرَ	-0.04420055
-3.647694	وَأَخَّرَتْ	-0.04420055
-3.647694	وَأَخْرَجَ	-0.04420055
-3.647694	وَأَخْرَجَتِ	-0.04420054
-3.647694	وَأَذِنَتْ	-0.04420055
-3.647694	وَأَرْسَلَ	-0.04420055
-3.647694	وَأَسِرُّوا	-0.04420055
-3.647694	وَأَسِيرًا	-0.04420055
-3.647694	وَأَسْرَرْتُ	-0.04420054
-3.647694	وَأَسْقَيْنَاكُمْ	-0.04420055
-3.647694	وَأَصَرُّوا	-0.04420055
-3.647694	وَأَصِيلًا	-0.04420055
-3.647694	وَأَطِيعُونِ	-0.04420055
-3.647694	وَأَعْتَدْنَا	-0.04420054
-3.647694	وَأَعْظَمَ	-0.04420055
-3.647694	وَأَعْنَابًا	-0.04420055
-3.647694	وَأَغْطَشَ	-0.04420055
-3.647694	وَأَغْلَالًا	-0.04420055
-3.647694	وَأَقَلُّ	-0.04420055
-3.647694	وَأَقِيمُوا	-0.04420055
-3.647694	وَأَقْرِضُوا	-0.04420055
-3.647694	وَأَقْوَمُ	-0.04420055
-3.647694	وَأَكِيدُ	-0.04420055
-3.647694	وَأَكْوَابٌ	-0.04420055
-3.647694	وَأَكْوَابٍ	-0.04420055
-3.647694	وَأَلْقَتْ	-0.04420054
-3.647694	وَأَمَّا	-0.04420055
-3.647694	وَأَمْوَاتًا	-0.04420055
-3.647694	وَأَنَّ	-0.04420055
-3.647694	وَأَنَّا	-0.04420055
-3.647694	وَأَنَّهُ	-0.04420055
-3.647694	وَأَنَّهُمْ	-0.04420055
-3.647694	وَأَنَّى	-0.04420055
-3.647694	وَأَنْ	-0.04420055
-3.647694	وَأَنْتَ	-0.04420055
-3.647694	وَأَنْزَلْنَا	-0.04420055
-3.647694	وَأَهْدِيَكَ	-0.04420055
-3.647694	وَأَهْلُ	-0.04420055
-3.647694	وَأُمِّهِ	-0.04420055
-3.647694	وَأُمْلِي	-0.04420054
-3.495546	وَإِذَا	-0.04420054
-3.647694	وَإِسْتَبْرَقٌ	-0.04420055
-3.647694	وَإِلَى	-0.04420055
-3.495546	وَإِلَيْهِ	-0.04420055
-3.647694	وَإِمَّا	-0.04420055
-3.647694	وَإِنَّ	-0.04420055
-3.647694	وَإِنَّا	-0.04420055
-3.647694	وَإِنَّكَ	-0.04420055
-3.647694	وَإِنَّمَا	-0.04420055
-3.647694	وَإِنَّهُ	-0.04420055
-3.647694	وَإِنِّي	-0.04420055
-3.647694	وَإِنْ	-0.04420055
-3.647694	وَإِيَّاكَ	-0.04420055
-3.647694	وَاتَّبَعُوا	-0.04420055
-3.647694	وَاتَّقَى	-0.04420055
-3.647694	وَاتَّقُوهُ	-0.04420055
-3.647694	وَاجِفَةٌ	-0.04420055
-3.647694	وَاحِدَةً	-0.04420055
-3.495546	وَاحِدَةٌ	-0.1365851
-3.647694	وَادْخُلِي	-0.04420055
-3.647694	وَاذْكُرِ	-0.04420055
-3.647694	وَاسْتَغْشَوْا	-0.04420055
-3.647694	وَاسْتَغْفِرُوا	-0.04420055
-3.647694	وَاسْتَغْفِرْهُ	-0.04420055
-3.647694	وَاسْتَغْنَى	-0.04420055
-3.647694	وَاسْتَكْبَرَ	-0.04420055
-3.647694	وَاسْتَكْبَرُوا	-0.04420055
-3.647694	وَاسْجُدْ	-0.04420055
-3.647694	وَاشْرَبُوا	-0.04420055
-3.647694	وَاصْبِرْ	-0.04420054
-3.647694	وَاعِيَةٌ	-0.04420055
-3.647694	وَاقِعٍ	-0.04420055
-3.647694	وَاقْتَرِبْ	-0.04420055
-3.647694	وَالتَّرَائِبِ	-0.04420055
-3.647694	وَالتِّينِ	-0.04420055
-3.647694	وَالرُّجْزَ	-0.04420055
-3.647694	وَالرُّوحُ	-0.04420055
-3.647694	وَالزَّيْتُونِ	-0.04420055
-3.647694	وَالسَّابِحَاتِ	-0.04420055
-3.647694	وَالسَّمَاءِ	-0.04420055
-3.647694	وَالشَّفْعِ	-0.04420055
-3.647694	وَالشَّمْسِ	-0.04420055
-3.647694	وَالصَّيْفِ	-0.04420055
-3.647694	وَالصُّبْحِ	-0.04420055
-3.647694	وَالضُّحَى	-0.04420055
-3.647694	وَالطَّارِقِ	-0.04420055
-3.647694	وَالظَّالِمِينَ	-0.04420055
-3.277206	وَاللَّهُ	-0.04420055
-3.647694	وَاللَّيْلِ	-0.04420055
-3.647694	وَالنَّازِعَاتِ	-0.04420055
-3.647694	وَالنَّاسِ	-0.04420055
-3.647694	وَالنَّاشِرَاتِ	-0.04420055
-3.647694	وَالنَّاشِطَاتِ	-0.04420055
-3.647694	وَالنَّهَارَ	-0.04420055
-3.647694	وَالنَّهَارِ	-0.04420055
-3.647694	وَالَّذِي	-0.04420055
-3.647694	وَالَّذِينَ	-0.04420054
-3.647694	وَالْآخِرَةُ	-0.04420055
-3.647694	وَالْأَبْصَارَ	-0.04420055
-3.647694	وَالْأَرْضَ	-0.04420055
-3.495546	وَالْأَرْضِ	-0.08794092
-3.647694	وَالْأَفْئِدَةَ	-0.04420055
-3.647694	وَالْأَمْرُ	-0.04420055
-3.647694	وَالْأَوَّلِينَ	-0.04420055
-3.647694	وَالْأُنْثَى	-0.04420055
-3.495546	وَالْأُولَى	-0.1365851
-3.647694	وَالْتَفَّتِ	-0.04420055
-3.647694	وَالْجِبَالَ	-0.04420055
-3.647694	وَالْجِبَالُ	-0.04420055
-3.647694	وَالْجِنُّ	-0.04420054
-3.647694	وَالْحَيَاةَ	-0.04420055
-3.647694	وَالْعَادِيَاتِ	-0.04420055
-3.647694	وَالْعَصْرِ	-0.04420055
-3.647694	وَالْفَتْحُ	-0.04420055
-3.647694	وَالْفَجْرِ	-0.04420055
-3.647694	وَالْقَلَمِ	-0.04420054
-3.647694	وَالْقَمَرُ	-0.04420055
-3.495546	وَالْقَمَرِ	-0.04420055
-3.647694	وَالْكَافِرُونَ	-0.04420055
-3.647694	وَالْمَحْرُومِ	-0.04420055
-3.647694	وَالْمَغَارِبِ	-0.04420055
-3.647694	وَالْمَغْرِبِ	-0.04420055
-3.647694	وَالْمَلَائِكَةُ	-0.04420055
-3.495546	وَالْمَلَكُ	-0.04420055
-3.647694	وَالْمُؤْتَفِكَاتُ	-0.04420055
-3.495546	وَالْمُؤْمِنَاتِ	-0.04420055
-3.647694	وَالْمُؤْمِنُونَ	-0.04420055
-3.647694	وَالْمُرْسَلَاتِ	-0.04420055
-3.647694	وَالْمُشْرِكِينَ	-0.04420055
-3.647694	وَالْمُكَذِّبِينَ	-0.04420055
-3.647694	وَالْوَتْرِ	-0.04420055
-3.647694	وَالْيَوْمِ	-0.04420055
-3.647694	وَامْرَأَتُهُ	-0.04420055
-3.647694	وَانْحَرْ	-0.04420055
-3.647694	وَانْشَقَّتِ	-0.04420055
-3.647694	وَاهِيَةٌ	-0.04420055
-3.647694	وَاهْجُرْهُمْ	-0.04420055
-3.647694	وَبَسَرَ	-0.04420055
-3.647694	وَبَنَيْنَا	-0.04420055
-3.277206	وَبَنِينَ	-0.04420054
-3.647694	وَبَنِيهِ	-0.04420055
-3.647694	وَبُرِّزَتِ	-0.04420055
-3.647694	وَبِئْسَ	-0.04420055
-3.647694	وَبِيلًا	-0.04420055
-3.647694	وَتَأْكُلُونَ	-0.04420055
-3.647694	وَتَبَتَّلْ	-0.04420055
-3.647694	وَتَبَّ	-0.04420055
-3.647694	وَتَخَلَّتْ	-0.04420055
-3.647694	وَتَذَرُونَ	-0.04420055
-3.647694	وَتَعِيَهَا	-0.04420055
-3.647694	وَتَقْوَاهَا	-0.04420055
-3.647694	وَتَكُونُ	-0.04420055
-3.647694	وَتَمَتَّعُوا	-0.04420055
-3.134029	وَتَوَاصَوْا	-0.08794092
-3.277206	وَتَوَلَّى	-0.2609153
-3.647694	وَتُحِبُّونَ	-0.04420055
-3.647694	وَثَاقَهُ	-0.04420055
-3.647694	وَثَمَانِيَةَ	-0.04420055
-3.495546	وَثَمُودَ	-0.04420055
-3.647694	وَثُلُثَهُ	-0.04420055
-3.647694	وَثِيَابَكَ	-0.04420055
-3.647694	وَجَاءَ	-0.04420055
-3.647694	وَجَحِيمًا	-0.04420055
-3.647694	وَجَزَاهُمْ	-0.04420055
-3.277206	وَجَعَلَ	-0.04420055
-3.647694	وَجَعَلْتُ	-0.04420055
-3.647694	وَجَعَلْنَا	-0.04420055
-3.647694	وَجَعَلْنَاهَا	-0.04420055
-3.647694	وَجَمَعَ	-0.04420055
-3.647694	وَجَنَّاتٍ	-0.04420055
-3.647694	وَجُمِعَ	-0.04420055
-3.647694	وَجِيءَ	-0.04420055
-3.647694	وَجْهِ	-0.04420054
-3.647694	وَجْهِهِ	-0.04420055
-3.647694	وَحَدَائِقَ	-0.04420055
-3.647694	وَحَرِيرًا	-0.04420055
-3.647694	وَحُصِّلَ	-0.04420054
-3.647694	وَحُقَّتْ	-0.04420055
-3.647694	وَحُلُّوا	-0.04420055
-3.647694	وَحُمِلَتِ	-0.04420054
-3.647694	وَحِيدًا	-0.04420055
-3.647694	وَخَسَفَ	-0.04420055
-3.647694	وَخَلَقْنَاكُمْ	-0.04420055
-3.647694	وَدَانِيَةً	-0.04420055
-3.647694	وَدًّا	-0.04420055
-3.647694	وَدَّعَكَ	-0.04420055
-3.647694	وَدُّوا	-0.04420054
-3.647694	وَذَرْنِي	-0.04420055
-3.647694	وَذَكَرَ	-0.04420055
-3.647694	وَذَلِكَ	-0.04420055
-3.647694	وَذُلِّلَتْ	-0.04420055
-3.647694	وَرَأَيْتَ	-0.04420055
-3.495546	وَرَاءَ	-0.04420055
-3.647694	وَرَاءَهُمْ	-0.04420055
-3.647694	وَرَائِهِمْ	-0.04420055
-3.647694	وَرَبَّكَ	-0.04420055
-3.647694	وَرَبُّكَ	-0.04420055
-3.647694	وَرَتِّلِ	-0.04420055
-3.647694	وَرَسُولَهُ	-0.04420055
-3.647694	وَرَضُوا	-0.04420055
-3.647694	وَرَفَعْنَا	-0.04420055
-3.647694	وَرِسَالَاتِهِ	-0.04420055
-3.647694	وَزَرَ	-0.04420055
-3.647694	وَزَرَابِيُّ	-0.04420055
-3.647694	وَزَنُوهُمْ	-0.04420055
-3.647694	وَزَيْتُونًا	-0.04420055
-3.647694	وَسَبِّحْهُ	-0.04420055
-3.647694	وَسَعِيرًا	-0.04420055
-3.647694	وَسَقَ	-0.04420055
-3.647694	وَسَقَاهُمْ	-0.04420055
-3.647694	وَسَيُجَنَّبُهَا	-0.04420055
-3.647694	وَسُرُورًا	-0.04420055
-3.647694	وَسُقْيَاهَا	-0.04420055
-3.647694	وَسُيِّرَتِ	-0.04420055
-3.647694	وَشَاهِدٍ	-0.04420055
-3.647694	وَشَدَدْنَا	-0.04420055
-3.647694	وَشَفَتَيْنِ	-0.04420055
-3.647694	وَشُهُبًا	-0.04420055
-3.647694	وَصَاحِبَتِهِ	-0.04420055
-3.647694	وَصَدَّقَ	-0.04420055
-3.647694	وَضُحَاهَا	-0.04420055
-3.647694	وَطَائِفَةٌ	-0.04420055
-3.647694	وَطَعَامًا	-0.04420055
-3.647694	وَطُورِ	-0.04420055
-3.647694	وَطْئًا	-0.04420055
-3.647694	وَظَنَّ	-0.04420055
-3.647694	وَعَادٌ	-0.04420055
-3.647694	وَعَدَّدَهُ	-0.04420055
-3.647694	وَعَذَابًا	-0.04420055
-3.647694	وَعَصَى	-0.04420055
-3.647694	وَعَلَيْهِ	-0.04420055
-3.647694	وَعَمِلُوا	-0.04420055
-3.647694	وَعَنِ	-0.04420055
-3.647694	وَعَهْدِهِمْ	-0.04420055
-3.647694	وَعُيُونٍ	-0.04420055
-3.647694	وَعِنَبًا	-0.04420055
-3.647694	وَعْدُهُ	-0.04420055
-3.647694	وَغَدَوْا	-0.04420054
-3.647694	وَغَسَّاقًا	-0.04420055
-3.647694	وَفَاكِهَةً	-0.04420055
-3.647694	وَفَصِيلَتِهِ	-0.04420055
-3.647694	وَفَوَاكِهَ	-0.04420055
-3.647694	وَفُتِحَتِ	-0.04420055
-3.647694	وَفِرْعَوْنَ	-0.04420054
-3.647694	وَفِي	-0.04420055
-3.647694	وَقَارًا	-0.04420055
-3.495546	وَقَالَ	-0.04420055
-3.647694	وَقَالُوا	-0.04420055
-3.647694	وَقَبَ	-0.04420055
-3.647694	وَقَدَّرَ	-0.04420055
-3.495546	وَقَدْ	-0.04420055
-3.647694	وَقَضْبًا	-0.04420055
-3.647694	وَقَعَتِ	-0.04420055
-3.647694	وَقُرْآنَهُ	-0.04420055
-3.647694	وَقُلْنَا	-0.04420054
-3.495546	وَقِيلَ	-0.04420055
-3.647694	وَكَأْسًا	-0.04420055
-3.647694	وَكَانَ	-0.04420055
-3.647694	وَكَانَتِ	-0.04420055
-3.647694	وَكَذَّبَ	-0.04420055
-3.647694	وَكَذَّبُوا	-0.04420055
-3.647694	وَكَفَرَ	-0.04420055
-3.647694	وَكَوَاعِبَ	-0.04420055
-3.647694	وَكُلُوا	-0.04420055
-3.647694	وَكُلَّ	-0.04420054
-3.647694	وَكُنَّا	-0.04420055
-3.647694	وَكِيلًا	-0.04420055
-2.313375	وَلَا	-0.05754337
-3.647694	وَلَدًا	-0.04420055
-3.647694	وَلَدَ	-0.04420055
-3.647694	وَلَسَوْفَ	-0.04420055
-3.647694	وَلَعَذَابُ	-0.04420055
-3.647694	وَلَقَدْ	-0.04420055
-3.647694	وَلَقَّاهُمْ	-0.04420055
-3.647694	وَلَكِنْ	-0.04420055
-3.647694	وَلَلْآخِرَةُ	-0.04420055
-3.495546	وَلَمْ	-0.04420055
-3.277206	وَلَنْ	-0.04420054
-3.647694	وَلَهُمْ	-0.04420055
-3.647694	وَلَوْ	-0.04420055
-3.647694	وَلَيَالٍ	-0.04420055
-3.647694	وَلِأَنْعَامِكُمْ	-0.04420055
-3.647694	وَلِرَبِّكَ	-0.04420055
-3.647694	وَلِسَانًا	-0.04420055
-3.647694	وَلِلَّذِينَ	-0.04420055
-3.647694	وَلِلْمُؤْمِنِينَ	-0.04420055
-3.647694	وَلِمَنْ	-0.04420055
-3.647694	وَلِوَالِدَيَّ	-0.04420055
-3.647694	وَلِيَ	-0.04420055
-3.647694	وَلِيَقُولَ	-0.04420055
-2.522381	وَمَا	-0.04927368
-3.647694	وَمَرْعَاهَا	-0.04420055
-3.647694	وَمَشْهُودٍ	-0.04420055
-3.647694	وَمَكَرُوا	-0.04420055
-2.868613	وَمَنْ	-0.04420055
-3.647694	وَمَهَّدْتُ	-0.04420055
-3.647694	وَمَهِّلْهُمْ	-0.04420055
-3.647694	وَمُلْكًا	-0.04420055
-3.647694	وَمُوسَى	-0.04420055
-3.647694	وَمِزَاجُهُ	-0.04420055
-3.647694	وَمِنَ	-0.04420055
-3.495546	وَمِنَّا	-0.04420055
-3.495546	وَمِنْ	-0.04420055
-3.647694	وَنَبَاتًا	-0.04420055
-3.647694	وَنَخْلًا	-0.04420055
-3.647694	وَنَرَاهُ	-0.04420055
-3.647694	وَنَسْرًا	-0.04420055
-3.647694	وَنَعَّمَهُ	-0.04420055
-3.647694	وَنَفْسٍ	-0.04420054
-3.647694	وَنَمَارِقُ	-0.04420055
-3.647694	وَنَهَارًا	-0.04420055
-3.647694	وَنَهَى	-0.04420055
-3.647694	وَنُفُورٍ	-0.04420055
-3.647694	وَنُيَسِّرُكَ	-0.04420055
-3.647694	وَنِصْفَهُ	-0.04420055
-3.647694	وَهَدَيْنَاهُ	-0.04420055
-3.647694	وَهَذَا	-0.04420055
-3.134029	وَهُمْ	-0.04420055
-2.807001	وَهُوَ	-0.04420055
-3.647694	وَهِيَ	-0.04420055
-3.647694	وَهَّاجًا	-0.04420055
-3.647694	وَوَالِدٍ	-0.04420054
-3.647694	وَوَجَدَكَ	-0.04420055
-3.647694	وَوَضَعْنَا	-0.04420055
-3.647694	وَوَلَدُهُ	-0.04420055
-3.647694	وَوُجُوهٌ	-0.04420055
-3.647694	وَيَتَجَنَّبُهَا	-0.04420055
-3.647694	وَيَتِيمًا	-0.04420055
-3.495546	وَيَجْعَلْ	-0.1365851
-3.647694	وَيَحْمِلُ	-0.04420055
-3.647694	وَيَخَافُونَ	-0.04420055
-3.647694	وَيَذَرُونَ	-0.04420055
-3.647694	وَيَزْدَادَ	-0.04420055
-3.647694	وَيَصْلَى	-0.04420055
-3.647694	وَيَطُوفُ	-0.04420055
-3.647694	وَيَعُوقَ	-0.04420055
-3.647694	وَيَقُولُ	-0.04420055
-3.495546	وَيَقُولُونَ	-0.04420055
-3.647694	وَيَقْبِضْنَ	-0.04420054
-3.647694	وَيَلْعَبُوا	-0.04420055
-3.647694	وَيَمْنَعُونَ	-0.04420055
-3.647694	وَيَنْقَلِبُ	-0.04420055
-3.647694	وَيَهْدِي	-0.04420055
-3.647694	وَيُؤَخِّرْكُمْ	-0.04420055
-3.647694	وَيُؤْتُوا	-0.04420055
-3.647694	وَيُبْصِرُونَ	-0.04420055
-3.647694	وَيُخْرِجُكُمْ	-0.04420055
-3.647694	وَيُدْعَوْنَ	-0.04420055
-3.647694	وَيُسْقَوْنَ	-0.04420055
-3.647694	وَيُطَافُ	-0.04420055
-3.647694	وَيُطْعِمُونَ	-0.04420055
-3.647694	وَيُعِيدُ	-0.04420055
-3.647694	وَيُقِيمُوا	-0.04420055
-3.647694	وَيُمْدِدْكُمْ	-0.04420055
-3.647694	وَيْلٌ	-0.04420054
-3.647694	وَيْلَنَا	-0.04420055
-3.647694	وُجُوهٌ	-0.04420055
-3.647694	وُجُوهُ	-0.04420055
-3.647694	وُجُوهِهِمْ	-0.04420055
-3.647694	وِزْرَكَ	-0.04420055
-3.647694	وِفَاقًا	-0.04420055
-3.647694	وِلْدَانٌ	-0.04420055
-3.647694	يَأْتِكُمْ	-0.04420055
-3.647694	يَأْتِيكُمْ	-0.04420055
-3.647694	يَأْتِيَهُمْ	-0.04420055
-3.647694	يَأْكُلُهُ	-0.04420055
-2.868613	يَا	-0.1269773
-3.647694	يَبْتَغُونَ	-0.04420055
-3.647694	يَبْعَثَ	-0.04420054
-3.647694	يَتَأَخَّرَ	-0.04420055
-3.647694	يَتَخَافَتُونَ	-0.04420055
-3.495546	يَتَذَكَّرُ	-0.1365851
-3.647694	يَتَزَكَّى	-0.04420055
-3.495546	يَتَسَاءَلُونَ	-0.1365851
-3.647694	يَتَغَامَزُونَ	-0.04420055
-3.647694	يَتَقَدَّمَ	-0.04420055
-3.647694	يَتَكَلَّمُونَ	-0.04420055
-3.647694	يَتَلَاوَمُونَ	-0.04420055
-3.647694	يَتَمَطَّى	-0.04420055
-3.647694	يَتُوبُوا	-0.04420055
-3.495546	يَتِيمًا	-0.04420055
-3.647694	يَتْلُو	-0.04420055
-3.647694	يَجِدُوا	-0.04420054
-3.647694	يَجِدْ	-0.04420055
-3.647694	يَجِدْكَ	-0.04420055
-3.495546	يَجْعَلُ	-0.04420055
-3.647694	يَجْعَلْ	-0.04420055
-3.647694	يَحُضُّ	-0.04420054
-3.647694	يَحُورَ	-0.04420055
-3.647694	يَحْسَبُ	-0.04420055
-3.647694	يَحْيَى	-0.04420055
-3.495546	يَخَافُ	-0.04420055
-3.647694	يَخَافُونَ	-0.04420055
-3.647694	يَخُوضُوا	-0.04420055
-3.647694	يَخْرُجُ	-0.04420055
-3.647694	يَخْرُجُونَ	-0.04420055
-3.647694	يَخْسِفَ	-0.04420055
-3.647694	يَخْشَاهَا	-0.04420055
-3.647694	يَخْشَوْنَ	-0.04420055
-3.277206	يَخْشَى	-0.2609153
-3.647694	يَخْفَى	-0.04420055
-3.647694	يَدَا	-0.04420055
-3.647694	يَدَاهُ	-0.04420055
-3.647694	يَدَيْهِ	-0.04420055
-3.647694	يَدُعُّ	-0.04420055
-3.647694	يَدْخُلَنَّهَا	-0.04420055
-3.647694	يَدْخُلُونَ	-0.04420055
-3.647694	يَدْعُو	-0.04420055
-3.647694	يَدْعُوهُ	-0.04420055
-3.647694	يَذُوقُونَ	-0.04420055
-3.647694	يَذَّكَّرُ	-0.04420055
-3.647694	يَذْكُرُونَ	-0.04420055
-3.277206	يَرَهُ	-0.103558
-3.647694	يَرَوْا	-0.04420055
-3.647694	يَرَوْنَ	-0.04420055
-3.647694	يَرَوْنَهَا	-0.04420055
-3.647694	يَرَوْنَهُ	-0.04420055
-3.495546	يَرَى	-0.1365851
-3.647694	يَرْتَابَ	-0.04420055
-3.647694	يَرْجُونَ	-0.04420055
-3.647694	يَرْزُقُكُمْ	-0.04420055
-3.647694	يَرْضَى	-0.04420055
-3.647694	يَرْكَعُونَ	-0.04420055
-3.647694	يَزِدْهُ	-0.04420055
-3.647694	يَزِدْهُمْ	-0.04420055
-3.495546	يَزَّكَّى	-0.1365851
-3.647694	يَسِيرًا	-0.04420055
-3.647694	يَسِيرٍ	-0.04420055
-3.647694	يَسَّرَهُ	-0.04420055
-3.495546	يَسْأَلُ	-0.04420055
-3.647694	يَسْأَلُونَكَ	-0.04420055
-3.647694	يَسْتَثْنُونَ	-0.04420055
-3.647694	يَسْتَطِيعُونَ	-0.04420055
-3.647694	يَسْتَقِيمَ	-0.04420055
-3.647694	يَسْتَمِعِ	-0.04420055
-3.647694	يَسْتَوْفُونَ	-0.04420055
-3.647694	يَسْجُدُونَ	-0.04420055
-3.647694	يَسْرِ	-0.04420055
-3.647694	يَسْطُرُونَ	-0.04420055
-3.495546	يَسْعَى	-0.1365851
-3.647694	يَسْلُكُ	-0.04420055
-3.647694	يَسْلُكْهُ	-0.04420055
-3.647694	يَسْمَعُونَ	-0.04420055
-3.647694	يَشَاءَ	-0.04420054
-3.647694	يَشَاءُ	-0.04420055
-3.647694	يَشْتَهُونَ	-0.04420055
-3.647694	يَشْرَبُ	-0.04420055
-3.647694	يَشْرَبُونَ	-0.04420055
-3.647694	يَشْهَدُهُ	-0.04420055
-3.647694	يَصْدُرُ	-0.04420055
-3.647694	يَصْلَاهَا	-0.04420055
-3.647694	يَصْلَوْنَهَا	-0.04420055
-3.647694	يَصْلَى	-0.04420055
-3.495546	يَضْحَكُونَ	-0.1365851
-3.647694	يَضْرِبُونَ	-0.04420055
-3.647694	يَطْمَعُ	-0.04420055
-3.647694	يَظُنُّ	-0.04420055
-3.647694	يَعُوذُونَ	-0.04420055
-3.647694	يَعْصِ	-0.04420055
-3.026532	يَعْلَمُ	-0.04420055
-3.134029	يَعْلَمُونَ	-0.1957951
-3.495546	يَعْلَمْ	-0.04420053
-3.495546	يَعْمَلْ	-0.1365851
-3.647694	يَغُوثَ	-0.04420055
-3.647694	يَغْشَاهَا	-0.04420055
-3.647694	يَغْشَى	-0.04420055
-3.647694	يَغْفِرْ	-0.04420055
-3.647694	يَفِرُّ	-0.04420055
-3.647694	يَفْتَدِي	-0.04420055
-3.495546	يَفْعَلُونَ	-0.04420054
-3.495546	يَقُولُ	-0.04420055
-3.495546	يَقُولُونَ	-0.04420055
-3.647694	يَقُومُ	-0.04420055
-3.647694	يَقْدِرَ	-0.04420055
-3.647694	يَقْضِ	-0.04420054
-3.647694	يَكَادُ	-0.04420055
-3.647694	يَكُ	-0.04420055
-3.647694	يَكُنِ	-0.04420055
-3.495546	يَكُنْ	-0.04420055
-3.647694	يَكُونُ	-0.04420055
-3.647694	يَكُونُونَ	-0.04420055
-3.647694	يَكِيدُونَ	-0.04420055
-3.647694	يَكْتُبُونَ	-0.04420055
-3.647694	يَكْسِبُونَ	-0.04420055
-3.647694	يَلِدُوا	-0.04420055
-3.647694	يَلِدْ	-0.04420055
-3.647694	يَلْبَثُوا	-0.04420055
-3.647694	يَمُوتُ	-0.04420055
-3.495546	يَمْشِي	-0.04420055
-3.647694	يَمْلِكُونَ	-0.04420054
-3.647694	يَنْتَهِ	-0.04420055
-3.647694	يَنْصُرُكُمْ	-0.04420055
-3.647694	يَنْطِقُونَ	-0.04420055
-3.647694	يَنْظُرُ	-0.04420055
-3.495546	يَنْظُرُونَ	-0.04420054
-3.647694	يَنْقَلِبْ	-0.04420055
-3.647694	يَنْهَى	-0.04420055
-3.647694	يَهْدِي	-0.04420055
-3.647694	يَوَدُّ	-0.04420055
-3.134029	يَوْمًا	-0.04420055
-3.647694	يَوْمٌ	-0.04420055
-3.495546	يَوْمٍ	-0.04420055
-3.026532	يَوْمَ	-0.04420055
-2.466484	يَوْمَئِذٍ	-0.04420055
-3.647694	يَوْمَهُمُ	-0.04420055
-3.277206	يَوْمُ	-0.0788333
-3.495546	يَوْمِ	-0.04420055
-3.647694	يَوْمِئِذٍ	-0.04420055
-3.647694	يُؤَخَّرُ	-0.04420054
-3.647694	يُؤْتَى	-0.04420055
-3.647694	يُؤْتِي	-0.04420055
-3.647694	يُؤْثَرُ	-0.04420055
-3.647694	يُؤْذَنُ	-0.04420054
-3.647694	يُؤْمِنُ	-0.04420055
-3.647694	يُؤْمِنُوا	-0.04420055
-3.495546	يُؤْمِنُونَ	-0.1365851
-3.647694	يُؤْمِنْ	-0.04420055
-3.647694	يُبَصَّرُونَهُمْ	-0.04420055
-3.647694	يُبْدِئُ	-0.04420055
-3.647694	يُبْدِلَنَا	-0.04420055
-3.647694	يُتْرَكَ	-0.04420055
-3.647694	يُجِيرَنِي	-0.04420055
-3.647694	يُجِيرُ	-0.04420055
-3.647694	يُحَاسَبُ	-0.04420055
-3.647694	يُحَافِظُونَ	-0.04420055
-3.647694	يُحِبُّونَ	-0.04420055
-3.647694	يُحْيِيَ	-0.04420055
-3.647694	يُخْسِرُونَ	-0.04420055
-3.647694	يُخْلَقْ	-0.04420055
-3.647694	يُدْخَلَ	-0.04420055
-3.647694	يُدْخِلُ	-0.04420055
-3.647694	يُدْرِيكَ	-0.04420055
-3.647694	يُدْعَوْنَ	-0.04420055
-3.647694	يُرَاءُونَ	-0.04420055
-3.495546	يُرِيدُ	-0.04420055
-3.647694	يُرْسِلَ	-0.04420054
-3.647694	يُرْسِلِ	-0.04420055
-3.647694	يُسْرًا	-0.04420055
-3.647694	يُسْقَوْنَ	-0.04420055
-3.647694	يُسْمِنُ	-0.04420055
-3.647694	يُصَدِّقُونَ	-0.04420055
-3.647694	يُضِلُّ	-0.04420054
-3.647694	يُضِلُّوا	-0.04420055
-3.647694	يُظْهِرُ	-0.04420054
-3.647694	يُعَذِّبُ	-0.04420055
-3.647694	يُعِيدُكُمْ	-0.04420055
-3.647694	يُعْرِضْ	-0.04420054
-3.647694	يُعْطِيكَ	-0.04420055
-3.495546	يُغْنِي	-0.04420055
-3.647694	يُغْنِيهِ	-0.04420055
-3.647694	يُفَجِّرُونَهَا	-0.04420055
-3.647694	يُفْعَلَ	-0.04420055
-3.647694	يُقَاتِلُونَ	-0.04420055
-3.647694	يُقَالُ	-0.04420055
-3.647694	يُقَدِّرُ	-0.04420055
-3.277206	يُكَذِّبُ	-0.04420055
-3.647694	يُكَذِّبُكَ	-0.04420055
-3.495546	يُكَذِّبُونَ	-0.04420055
-3.647694	يُكْشَفُ	-0.04420054
-3.647694	يُلَاقُوا	-0.04420055
-3.647694	يُمْسِكُهُنَّ	-0.04420055
-3.647694	يُمْنَى	-0.04420055
-3.647694	يُنَبَّأُ	-0.04420055
-3.647694	يُنْجِيهِ	-0.04420055
-3.647694	يُنْفَخُ	-0.04420055
-3.647694	يُوثِقُ	-0.04420055
-3.277206	يُوعَدُونَ	-0.103558
-3.647694	يُوعُونَ	-0.04420055
-3.647694	يُوفُونَ	-0.04420055
-3.647694	يُوفِضُونَ	-0.04420055
-3.647694	يُولَدْ	-0.04420055
-3.647694	يُوَسْوِسُ	-0.04420055

\2-grams:
-3.676481	<s> أَأَمِنْتُمْ
-3.676481	<s> أَأَنْتُمْ
-3.676481	<s> أَإِذَا
-3.676481	<s> أَبْصَارُهَا
-3.676481	<s> أَحْيَاءً
-3.587506	<s> أَخْرَجَ
-2.60872	<s> أَرَأَيْتَ	-0.0722034
-3.587506	<s> أَعُوذُ
-3.185601	<s> أَفَلَا
-3.676481	<s> أَفَمَنْ
-3.676481	<s> أَفَنَجْعَلُ
-3.185601	<s> أَلَا
-1.935962	<s> أَلَمْ	-0.02054746
-3.185601	<s> أَلَيْسَ
-3.676481	<s> أَلْهَاكُمُ
-3.676481	<s> أَمَّا
-3.154829	<s> أَمَّنْ	-0.07220339
-2.336325	<s> أَمْ	-0.02233161
-3.185601	<s> أَنِ
-3.676481	<s> أَنَّا
-2.357118	<s> أَنْ
-3.676481	<s> أَوَلَمْ
-2.372591	<s> أَوْ
-3.587506	<s> أَوْلَى
-2.60872	<s> أَيَحْسَبُ	-0.07220339
-3.676481	<s> أَيَطْمَعُ
-2.763636	<s> أُولَئِكَ
-2.037629	<s> إِذَا	-0.03045341
-3.676481	<s> إِذِ
-3.040676	<s> إِذْ
-3.676481	<s> إِرَمَ
-3.676481	<s> إِلَهِ
-2.235846	<s> إِلَى	-0.07351397
-1.879188	<s> إِلَّا	-0.02961483
-1.406267	<s> إِنَّ	-0.0878287
-1.882434	<s> إِنَّا	-0.009441123
-3.587506	<s> إِنَّكَ
-2.790836	<s> إِنَّمَا
-2.820208	<s> إِنَّهَا
-2.084682	<s> إِنَّهُ	-0.02655332
-2.763636	<s> إِنَّهُمْ
-3.241381	<s> إِنِّي
-2.574322	<s> إِنْ
-3.676481	<s> إِيلَافِهِمْ
-3.676481	<s> إِيَّاكَ
-3.676481	<s> اذْهَبْ
-3.676481	<s> ارْجِعِي
-3.185601	<s> اقْرَأْ
-3.241381	<s> الرَّحْمَنِ
-3.106321	<s> السَّمَاءُ
-2.790538	<s> اللَّهُ
-3.587506	<s> النَّارِ
-3.676481	<s> النَّجْمُ
-3.154829	<s> الَّتِي
-1.878982	<s> الَّذِي	-0.02468469
-2.209082	<s> الَّذِينَ	-0.06165389
-3.676481	<s> الْجَوَارِ
-3.587506	<s> الْحَاقَّةُ
-3.676481	<s> الْحَمْدُ
-3.587506	<s> الْقَارِعَةُ
-3.185601	<s> انْطَلِقُوا	-0.0722034
-3.676481	<s> اهْدِنَا
-3.154829	<s> بَلَى
-2.834178	<s> بَلِ	-0.04602871
-2.442167	<s> بَلْ	-0.02719361
-3.587506	<s> بِأَنَّ
-3.676481	<s> بِأَيِّ
-3.676481	<s> بِأَيْدِي
-3.676481	<s> بِأَيْيِكُمُ
-3.676481	<s> بِسْمِ
-3.676481	<s> تَبَارَكَ
-3.676481	<s> تَبَّتْ
-3.676481	<s> تَتْبَعُهَا
-3.676481	<s> تَدْعُو
-3.676481	<s> تَرْمِيهِمْ
-3.676481	<s> تَرْهَقُهَا
-3.676481	<s> تَصْلَى
-3.676481	<s> تَظُنُّ
-3.676481	<s> تَعْرُجُ
-3.676481	<s> تَعْرِفُ
-3.676481	<s> تَكَادُ
-3.676481	<s> تَنَزَّلُ
-3.676481	<s> تَنْزِيلٌ
-3.676481	<s> تُسْقَى
-1.50129	<s> ثُمَّ	-0.02001903
-3.093679	<s> جَزَاءً
-3.676481	<s> جَزَاؤُهُمْ
-2.763636	<s> حَتَّى
-3.676481	<s> حَدَائِقَ
-3.185601	<s> خَاشِعَةً	-0.0722034
-3.168622	<s> خَلَقَ
-3.676481	<s> خُذُوهُ
-3.438452	<s> خُلِقَ
-3.676481	<s> خِتَامُهُ
-3.676481	<s> ذَرْنِي
-2.884075	<s> ذَلِكَ
-3.676481	<s> ذُو
-3.168622	<s> ذِي
-3.587506	<s> رَبُّ
-2.993444	<s> رَبِّ
-3.676481	<s> رَسُولٌ
-3.676481	<s> رَفَعَ
-3.676481	<s> سَأَلَ
-3.676481	<s> سَأُرْهِقُهُ
-3.676481	<s> سَأُصْلِيهِ
-3.676481	<s> سَبِّحِ
-3.676481	<s> سَخَّرَهَا
-3.676481	<s> سَلَامٌ
-3.676481	<s> سَلْهُمْ
-3.676481	<s> سَنَدْعُ
-3.676481	<s> سَنَسِمُهُ
-3.676481	<s> سَنُقْرِئُكَ
-3.676481	<s> سَيَذَّكَّرُ
-3.676481	<s> سَيَصْلَى
-3.676481	<s> صُحُفِ
-3.676481	<s> صِرَاطَ
-3.676481	<s> ضَاحِكَةٌ
-3.676481	<s> عَالِمُ
-3.676481	<s> عَالِيَهُمْ
-3.676481	<s> عَامِلَةٌ
-3.587506	<s> عَبَسَ
-3.676481	<s> عَبْدًا
-3.676481	<s> عَسَى
-2.224498	<s> عَلَى	-0.03430186
-3.241381	<s> عَلَيْهَا
-2.850607	<s> عَلَيْهِمْ
-3.185601	<s> عَلِمَتْ	-0.0722034
-3.587506	<s> عَلَّمَ
-3.676481	<s> عَمَّ
-2.73804	<s> عَنِ
-2.834178	<s> عَيْنًا	-0.04607546
-3.676481	<s> عُتُلٍّ
-3.676481	<s> عُذْرًا
-3.676481	<s> فَأَثَرْنَ
-3.676481	<s> فَأَخَذَهُ
-3.676481	<s> فَأَرَاهُ
-3.676481	<s> فَأَصْبَحَتْ
-3.676481	<s> فَأَقْبَلَ
-3.676481	<s> فَأَكْثَرُوا
-3.676481	<s> فَأَلْهَمَهَا
-2.190441	<s> فَأَمَّا	-0.1860895
-3.676481	<s> فَأَنْبَتْنَا
-3.185601	<s> فَأَنْتَ
-3.676481	<s> فَأَنْذَرْتُكُمْ
-3.676481	<s> فَأَيْنَ
-3.676481	<s> فَأُمُّهُ
-2.125235	<s> فَإِذَا	-0.01470904
-2.820208	<s> فَإِنَّ
-3.676481	<s> فَإِنَّمَا
-3.676481	<s> فَإِنْ
-3.676481	<s> فَاجْتَبَاهُ
-3.676481	<s> فَادْخُلِي
-2.820208	<s> فَاصْبِرْ	-0.04631644
-3.676481	<s> فَاعْتَرَفُوا
-3.676481	<s> فَالسَّابِقَاتِ
-3.676481	<s> فَالْعَاصِفَاتِ
-3.676481	<s> فَالْفَارِقَاتِ
-3.676481	<s> فَالْمُدَبِّرَاتِ
-3.676481	<s> فَالْمُغِيرَاتِ
-3.676481	<s> فَالْمُلْقِيَاتِ
-3.676481	<s> فَالْمُورِيَاتِ
-3.676481	<s> فَالْيَوْمَ
-3.676481	<s> فَانْطَلَقُوا
-3.676481	<s> فَبَشِّرْهُمْ
-3.676481	<s> فَبِأَيِّ
-3.676481	<s> فَتَنَادَوْا
-3.676481	<s> فَجَعَلَ
-3.587506	<s> فَجَعَلَهُ
-3.676481	<s> فَجَعَلَهُمْ
-3.587506	<s> فَجَعَلْنَاهُ
-3.676481	<s> فَحَشَرَ
-3.676481	<s> فَذَرْنِي
-3.676481	<s> فَذَرْهُمْ
-3.185601	<s> فَذَكِّرْ
-3.185601	<s> فَذَلِكَ
-3.676481	<s> فَذُوقُوا
-3.676481	<s> فَرَّتْ
-3.185601	<s> فَسَبِّحْ
-3.676481	<s> فَسَتُبْصِرُ
-3.185601	<s> فَسَنُيَسِّرُهُ
-3.185601	<s> فَسَوْفَ
-3.676481	<s> فَصَبَّ
-3.676481	<s> فَصَلِّ
-3.676481	<s> فَطَافَ
-3.676481	<s> فَعَصَوْا
-3.676481	<s> فَعَصَى
-3.676481	<s> فَعَّالٌ
-2.834178	<s> فَقَالَ
-3.676481	<s> فَقَدَرْنَا
-3.676481	<s> فَقُتِلَ
-3.676481	<s> فَقُلْ
-3.676481	<s> فَقُلْتُ
-3.676481	<s> فَكَذَّبَ
-3.676481	<s> فَكَذَّبُوهُ
-3.587506	<s> فَكَيْفَ
-3.676481	<s> فَكُّ
-2.212552	<s> فَلَا	-0.1285008
-3.185601	<s> فَلَمَّا
-3.587506	<s> فَلَمْ
-3.676481	<s> فَلَيْسَ
-3.676481	<s> فَلْيَدْعُ
-3.676481	<s> فَلْيَعْبُدُوا
-3.185601	<s> فَلْيَنْظُرِ	-0.0722034
-2.351057	<s> فَمَا	-0.0221719
-3.676481	<s> فَمَالِ
-3.676481	<s> فَمَنِ
-2.669224	<s> فَمَنْ	-0.04433336
-3.676481	<s> فَمَهِّلِ
-3.676481	<s> فَهَلْ
-3.185601	<s> فَهُوَ	-0.0722034
-3.676481	<s> فَوَسَطْنَ
-3.676481	<s> فَوَقَاهُمُ
-3.676481	<s> فَوَيْلٌ
-3.185601	<s> فَيَوْمَئِذٍ
-3.676481	<s> فَيُعَذِّبُهُ
-3.587506	<s> فِرْعَوْنَ
-1.938516	<s> فِي	-0.01690403
-3.676481	<s> فِيمَ
-2.468877	<s> فِيهَا
-2.600353	<s> قَالَ
-2.442167	<s> قَالُوا
-3.093679	<s> قَدْ	-0.0722034
-3.676481	<s> قَوَارِيرَ
-3.154829	<s> قُتِلَ
-3.587506	<s> قُطُوفُهَا
-3.676481	<s> قُلُوبٌ
-1.871955	<s> قُلْ	-0.09701599
-3.676481	<s> قُمِ
-3.676481	<s> قُمْ
-3.676481	<s> كَأَنَّهُ
-3.093679	<s> كَأَنَّهُمْ
-3.093679	<s> كَذَلِكَ
-3.185601	<s> كَذَّبَتْ	-0.0722034
-1.629912	<s> كَلَّا	-0.09213492
-2.834178	<s> كُلُوا	-0.04607546
-3.241381	<s> كُلُّ
-3.154829	<s> كِتَابٌ	-0.07220339
-3.676481	<s> كِرَامًا
-3.676481	<s> كِرَامٍ
-3.676481	<s> لَأَخَذْنَا
-1.882642	<s> لَا	-0.01113661
-3.676481	<s> لَابِثِينَ
-3.676481	<s> لَتَرَوُنَّ
-3.676481	<s> لَتَرْكَبُنَّ
-3.676481	<s> لَسْتَ
-3.185601	<s> لَقَدْ	-0.0722034
-2.850607	<s> لَكُمْ
-2.784382	<s> لَمْ
-3.676481	<s> لَوَّاحَةٌ
-3.587506	<s> لَوْلَا
-3.587506	<s> لَيْسَ
-3.587506	<s> لَيْلَةُ
-3.676481	<s> لِأَيِّ
-3.676481	<s> لِإِيلَافِ
-3.676481	<s> لِتَسْلُكُوا
-3.676481	<s> لِسَعْيِهَا
-3.587506	<s> لِكُلِّ
-3.676481	<s> لِلسَّائِلِ
-3.676481	<s> لِلطَّاغِينَ
-3.587506	<s> لِلْكَافِرِينَ
-3.040676	<s> لِمَنْ	-0.0722034
-3.676481	<s> لِنَجْعَلَهَا
-3.676481	<s> لِنَفْتِنَهُمْ
-3.676481	<s> لِنُخْرِجَ
-3.676481	<s> لِيَعْلَمَ
-3.676481	<s> لِيَوْمٍ
-3.676481	<s> لِيَوْمِ
-1.960643	<s> مَا	-0.0304906
-3.676481	<s> مَالِكِ
-3.185601	<s> مَتَاعًا	-0.07220339
-3.676481	<s> مَرْفُوعَةٍ
-3.676481	<s> مَلِكِ
-3.676481	<s> مَنَّاعٍ
-3.676481	<s> مُتَّكِئِينَ
-3.676481	<s> مُطَاعٍ
-3.438452	<s> مِمَّا
-2.537849	<s> مِنَ
-2.093887	<s> مِنْ	-0.03456554
-3.676481	<s> ن
-3.587506	<s> نَارٌ
-3.676481	<s> نَارُ
-3.676481	<s> نَاصِيَةٍ
-3.328833	<s> نَحْنُ
-3.676481	<s> نَذِيرًا
-3.676481	<s> نَزَّاعَةً
-3.676481	<s> نِصْفَهُ
-2.876453	<s> هَذَا	-0.07220341
-3.676481	<s> هَلَكَ
-2.336325	<s> هَلْ	-0.06139929
-3.676481	<s> هَمَّازٍ
-2.850607	<s> هُوَ
-3.676481	<s> وَآثَرَ
-3.676481	<s> وَأَخْرَجَتِ
-3.185601	<s> وَأَذِنَتْ	-0.0722034
-3.676481	<s> وَأَرْسَلَ
-3.676481	<s> وَأَسِرُّوا
-3.676481	<s> وَأَغْطَشَ
-3.676481	<s> وَأَكِيدُ
-3.676481	<s> وَأَكْوَابٌ
-3.676481	<s> وَأَلْقَتْ
-2.024981	<s> وَأَمَّا	-0.1832667
-3.676481	<s> وَأَنَّ
-2.190441	<s> وَأَنَّا	-0.03392515
-2.60872	<s> وَأَنَّهُ	-0.03387159
-3.676481	<s> وَأَنَّهُمْ
-3.676481	<s> وَأَنْ
-3.676481	<s> وَأَنْتَ
-3.676481	<s> وَأَنْزَلْنَا
-3.676481	<s> وَأَهْدِيَكَ
-3.676481	<s> وَأُمِّهِ
-3.676481	<s> وَأُمْلِي
-1.611827	<s> وَإِذَا	-0.0152033
-2.60872	<s> وَإِلَى
-2.60872	<s> وَإِنَّ
-3.676481	<s> وَإِنَّا
-3.676481	<s> وَإِنَّكَ
-2.461054	<s> وَإِنَّهُ
-3.676481	<s> وَإِنِّي
-3.676481	<s> وَإِنْ
-3.676481	<s> وَادْخُلِي
-3.185601	<s> وَاذْكُرِ	-0.0722034
-3.676481	<s> وَاصْبِرْ
-3.676481	<s> وَالتِّينِ
-3.676481	<s> وَالرُّجْزَ
-3.676481	<s> وَالسَّابِحَاتِ
-2.60872	<s> وَالسَّمَاءِ	-0.03391965
-3.676481	<s> وَالشَّفْعِ
-3.676481	<s> وَالشَّمْسِ
-3.185601	<s> وَالصُّبْحِ	-0.0722034
-3.676481	<s> وَالضُّحَى
-2.582412	<s> وَاللَّهُ
-2.263366	<s> وَاللَّيْلِ	-0.2207118
-3.676481	<s> وَالنَّازِعَاتِ
-3.676481	<s> وَالنَّاشِرَاتِ
-3.676481	<s> وَالنَّاشِطَاتِ
-3.185601	<s> وَالنَّهَارِ	-0.0722034
-3.185601	<s> وَالَّذِي
-2.190441	<s> وَالَّذِينَ	-0.1861314
-3.676481	<s> وَالْآخِرَةُ
-3.676481	<s> وَالْأَرْضَ
-3.154829	<s> وَالْأَرْضِ
-3.676481	<s> وَالْتَفَّتِ
-3.185601	<s> وَالْجِبَالَ
-3.676481	<s> وَالْعَادِيَاتِ
-3.676481	<s> وَالْعَصْرِ
-3.676481	<s> وَالْفَجْرِ
-3.154829	<s> وَالْقَمَرِ	-0.07220338
-3.587506	<s> وَالْمَلَكُ
-3.676481	<s> وَالْمُرْسَلَاتِ
-3.676481	<s> وَالْيَوْمِ
-3.676481	<s> وَامْرَأَتُهُ
-3.676481	<s> وَانْشَقَّتِ
-3.676481	<s> وَبَنَيْنَا
-3.438452	<s> وَبَنِينَ
-3.676481	<s> وَبُرِّزَتِ
-3.676481	<s> وَتَأْكُلُونَ
-3.676481	<s> وَتَذَرُونَ
-3.185601	<s> وَتَكُونُ	-0.07220339
-3.676481	<s> وَتُحِبُّونَ
-3.587506	<s> وَثَمُودَ
-3.676481	<s> وَثِيَابَكَ
-3.185601	<s> وَجَاءَ
-3.676481	<s> وَجَزَاهُمْ
-3.438452	<s> وَجَعَلَ
-3.676481	<s> وَجَعَلْتُ
-2.461054	<s> وَجَعَلْنَا
-3.676481	<s> وَجَمَعَ
-3.676481	<s> وَجَنَّاتٍ
-3.676481	<s> وَجُمِعَ
-3.676481	<s> وَجِيءَ
-3.676481	<s> وَحَدَائِقَ
-3.676481	<s> وَحُصِّلَ
-3.676481	<s> وَحُمِلَتِ
-3.676481	<s> وَخَسَفَ
-3.676481	<s> وَخَلَقْنَاكُمْ
-3.676481	<s> وَدَانِيَةً
-3.676481	<s> وَدُّوا
-3.676481	<s> وَذَرْنِي
-3.676481	<s> وَذَكَرَ
-3.676481	<s> وَرَأَيْتَ
-3.676481	<s> وَرَبَّكَ
-3.676481	<s> وَرَفَعْنَا
-3.676481	<s> وَزَرَابِيُّ
-3.676481	<s> وَزَيْتُونًا
-3.676481	<s> وَسَيُجَنَّبُهَا
-3.676481	<s> وَسُيِّرَتِ
-3.676481	<s> وَشَاهِدٍ
-3.185601	<s> وَصَاحِبَتِهِ
-3.676481	<s> وَصَدَّقَ
-3.676481	<s> وَطَعَامًا
-3.676481	<s> وَطُورِ
-3.676481	<s> وَظَنَّ
-3.676481	<s> وَعِنَبًا
-3.676481	<s> وَغَدَوْا
-3.676481	<s> وَفَاكِهَةً
-3.676481	<s> وَفَصِيلَتِهِ
-3.676481	<s> وَفَوَاكِهَ
-3.676481	<s> وَفُتِحَتِ
-3.676481	<s> وَفِرْعَوْنَ
-3.154829	<s> وَقَالَ
-3.185601	<s> وَقَالُوا
-2.820208	<s> وَقَدْ
-3.587506	<s> وَقِيلَ
-3.676481	<s> وَكَأْسًا
-3.676481	<s> وَكَذَّبَ
-3.676481	<s> وَكَذَّبُوا
-3.676481	<s> وَكَوَاعِبَ
-3.676481	<s> وَكُلَّ
-3.185601	<s> وَكُنَّا
-1.775291	<s> وَلَا	-0.01679489
-3.185601	<s> وَلَسَوْفَ
-2.834178	<s> وَلَقَدْ
-3.676481	<s> وَلَكِنْ
-3.676481	<s> وَلَلْآخِرَةُ
-2.820208	<s> وَلَمْ
-3.185601	<s> وَلَوْ
-3.676481	<s> وَلَيَالٍ
-3.676481	<s> وَلِرَبِّكَ
-3.676481	<s> وَلِسَانًا
-3.676481	<s> وَلِلَّذِينَ
-1.471322	<s> وَمَا	-0.2068235
-3.676481	<s> وَمَكَرُوا
-2.912059	<s> وَمَنْ
-3.676481	<s> وَمَهَّدْتُ
-3.676481	<s> وَمِزَاجُهُ
-3.676481	<s> وَمِنَ
-2.820208	<s> وَمِنْ	-0.1337685
-3.676481	<s> وَنَرَاهُ
-3.676481	<s> وَنَفْسٍ
-3.676481	<s> وَنَمَارِقُ
-3.676481	<s> وَنُيَسِّرُكَ
-3.676481	<s> وَهَدَيْنَاهُ
-3.676481	<s> وَهَذَا
-3.328833	<s> وَهُمْ
-2.876453	<s> وَهُوَ
-3.676481	<s> وَوَالِدٍ
-3.185601	<s> وَوَجَدَكَ
-3.676481	<s> وَوَضَعْنَا
-3.185601	<s> وَوُجُوهٌ	-0.0722034
-3.676481	<s> وَيَتَجَنَّبُهَا
-3.676481	<s> وَيَصْلَى
-3.676481	<s> وَيَطُوفُ
-3.587506	<s> وَيَقُولُونَ
-3.676481	<s> وَيَمْنَعُونَ
-3.676481	<s> وَيَنْقَلِبُ
-3.676481	<s> وَيُسْقَوْنَ
-3.676481	<s> وَيُطَافُ
-3.676481	<s> وَيُطْعِمُونَ
-3.676481	<s> وَيُمْدِدْكُمْ
-1.941762	<s> وَيْلٌ	-0.4895606
-2.60872	<s> وُجُوهٌ	-0.2587073
-2.298588	<s> يَا	-0.1532869
-3.587506	<s> يَتِيمًا
-3.676481	<s> يَحْسَبُ
-3.676481	<s> يَخْرُجُ
-3.587506	<s> يَسْأَلُ
-3.676481	<s> يَسْأَلُونَكَ
-3.676481	<s> يَشْهَدُهُ
-3.676481	<s> يَصْلَوْنَهَا
-3.328833	<s> يَعْلَمُونَ
-3.676481	<s> يَغْفِرْ
-2.820208	<s> يَقُولُ
-3.587506	<s> يَقُولُونَ
-3.676481	<s> يَهْدِي
-1.928191	<s> يَوْمَ	-0.02060248
-2.510976	<s> يَوْمَئِذٍ
-3.676481	<s> يُبَصَّرُونَهُمْ
-3.676481	<s> يُدْخِلُ
-3.676481	<s> يُرْسِلِ
-3.676481	<s> يُسْقَوْنَ
-3.676481	<s> يُنَبَّأُ
-3.676481	<s> يُوفُونَ
-1.00717	آثِمًا أَوْ
-1.013358	آذَانِهِمْ وَاسْتَغْشَوْا
-0.9950027	آلِهَتَكُمْ وَلَا
-1.708702	آمَنُوا إِيمَانًا
-1.627883	آمَنُوا مِنَ
-1.698602	آمَنُوا وَتَوَاصَوْا
-1.708702	آمَنُوا وَعَمِلُوا	-0.3556173
-1.706812	آمَنُوا يَضْحَكُونَ
-0.5658511	آمَنَّا بِهِ
-0.5978397	آنِيَةٍ </s>
-1.012976	آيَاتُنَا قَالَ	-0.07220341
-0.9998287	أَأَمِنْتُمْ مَنْ
-1.012976	أَأَنْتُمْ أَشَدُّ
-1.009645	أَإِذَا كُنَّا
-1.013358	أَإِنَّا لَمَرْدُودُونَ
-0.5978397	أَبَابِيلَ </s>
-0.6902477	أَبَدًا </s>
-1.313479	أَبَدًا رَضِيَ
-1.012976	أَبِي لَهَبٍ
-1.012976	أَبْصَارُهَا خَاشِعَةٌ
-1.013358	أَبْصَارُهُمْ تَرْهَقُهُمْ	-0.0722034
-1.013358	أَبْلَغُوا رِسَالَاتِ
-0.5978397	أَبْوَابًا </s>
-1.013358	أَتَاكَ حَدِيثُ
-1.013358	أَتَانَا الْيَقِينُ
-0.986292	أَتَى عَلَى
-0.5978397	أَتْرَابًا </s>
-0.5978397	أَثِيمٍ </s>
-0.5978397	أَثْقَالَهَا </s>
-1.013358	أَجَلٍ مُسَمًّى
-1.000638	أَجَلَ اللَّهِ
-0.9708885	أَجِدَ مِنْ
-1.312717	أَجْرًا فَهُمْ
-1.313479	أَجْرًا وَاسْتَغْفِرُوا
-0.5680228	أَجْرٌ غَيْرُ	-0.07220339
-1.008818	أَجْرَمُوا كَانُوا
-0.1380604	أَحَدًا </s>
-0.164394	أَحَدٌ </s>
-1.853368	أَحَدٌ وَلَنْ
-1.010473	أَحَدٍ عَنْهُ
-1.013358	أَحْسَنُ عَمَلًا
-1.013358	أَحْسَنِ تَقْوِيمٍ
-1.013358	أَحْصَيْنَاهُ كِتَابًا
-0.5978397	أَحْضَرَتْ </s>
-0.5978397	أَحْقَابًا </s>
-0.5978397	أَحْوَى </s>
-1.013358	أَحْيَاءً وَأَمْوَاتًا
-0.5978397	أَخِيهِ </s>
-0.5978397	أَخْبَارَهَا </s>
-1.013358	أَخْذًا وَبِيلًا
-1.013358	أَخْذَةً رَابِيَةً
-1.313479	أَخْرَجَ الْمَرْعَى
-1.309385	أَخْرَجَ مِنْهَا
-0.5978397	أَخْلَدَهُ </s>
-0.7450522	أَدْبَرَ </s>
-1.612695	أَدْبَرَ وَاسْتَكْبَرَ
-1.607848	أَدْبَرَ وَتَوَلَّى
-1.61118	أَدْبَرَ يَسْعَى
-0.5605876	أَدْرَاكَ مَا	-0.02735088
-0.986292	أَدْرِ مَا
-1.013358	أَدْرِي أَقَرِيبٌ
-1.012134	أَدْعُو رَبِّي
-0.9708885	أَدْنَى مِنْ
-1.001449	أَذِنَ لَهُ
-1.294786	أَرَأَيْتَ إِنْ
-1.301214	أَرَأَيْتَ الَّذِي
-1.003892	أَرَأَيْتُمْ إِنْ
-1.291607	أَرَادَ اللَّهُ
-1.311038	أَرَادَ بِهِمْ
-1.013358	أَرْجَائِهَا وَيَحْمِلُ
-0.5978397	أَرْسَاهَا </s>
-1.435979	أَرْسَلْنَا إِلَى
-1.488662	أَرْسَلْنَا إِلَيْكُمْ
-1.488662	أَرْسَلْنَا نُوحًا
-0.5978397	أَزِيدَ </s>
-0.5978397	أَزْوَاجًا </s>
-1.00717	أَزْوَاجِهِمْ أَوْ
-1.012976	أَسَاطِيرُ الْأَوَّلِينَ	-0.07220338
-0.9708885	أَسَاوِرَ مِنْ
-1.012976	أَسْرَهُمْ وَإِذَا
-0.5978397	أَسْفَرَ </s>
-1.013358	أَسْفَلَ سَافِلِينَ
-0.9746885	أَسْلَفْتُمْ فِي
-1.012976	أَسْلَمَ فَأُولَئِكَ
-1.313479	أَشَدُّ خَلْقًا
-1.313479	أَشَدُّ وَطْئًا
-1.013358	أَشَرٌّ أُرِيدَ
-1.013358	أَشْتَاتًا لِيُرَوْا
-0.5978397	أَشْقَاهَا </s>
-0.9746885	أَصَابِعَهُمْ فِي
-1.013358	أَصْبَحَ مَاؤُكُمْ
-1.487523	أَصْحَابَ النَّارِ
-1.488662	أَصْحَابَ الْجَنَّةِ
-1.487523	أَصْحَابَ الْيَمِينِ
-1.488662	أَصْحَابُ الْأُخْدُودِ
-1.488662	أَصْحَابُ الْمَشْأَمَةِ
-1.488662	أَصْحَابُ الْمَيْمَنَةِ
-1.012134	أَصْحَابِ السَّعِيرِ
-1.013358	أَضَلُّوا كَثِيرًا
-1.013358	أَضْعَفُ نَاصِرًا
-0.9708885	أَطْعَمَهُمْ مِنْ
-0.5978397	أَطْوَارًا </s>
-1.002262	أَعَدَّ لَهُمْ
-1.313479	أَعُوذُ بِاللَّهِ
-1.312717	أَعُوذُ بِرَبِّ
-0.6902477	أَعْبُدُ </s>
-1.261038	أَعْبُدُ مَا
-1.012976	أَعْتَدْنَا لِلْكَافِرِينَ
-1.013358	أَعْجَازُ نَخْلٍ
-1.013358	أَعْطَى وَاتَّقَى
-1.013358	أَعْطَيْنَاكَ الْكَوْثَرَ
-1.488662	أَعْلَمُ بِالْمُهْتَدِينَ
-1.475237	أَعْلَمُ بِمَا
-1.487523	أَعْلَمُ بِمَنْ
-1.002262	أَعْلَنْتُ لَهُمْ
-0.5978397	أَعْمَالَهُمْ </s>
-1.312717	أَغْنَى عَنِّي
-1.307739	أَغْنَى عَنْهُ
-1.307739	أَفَلَا يَعْلَمُ
-1.312717	أَفَلَا يَنْظُرُونَ
-1.012976	أَفَمَنْ يَمْشِي
-1.013358	أَفَنَجْعَلُ الْمُسْلِمِينَ
-0.9998287	أَفْلَحَ مَنْ
-0.4026464	أَفْوَاجًا </s>
-0.986292	أَقَرِيبٌ مَا
-1.003892	أَقُلْ لَكُمْ
-1.013358	أَقْسَمُوا لَيَصْرِمُنَّهَا
-1.009645	أَكْبَرُ لَوْ
-0.5978397	أَكْرَمَنِ </s>
